,PC1,PC2,PC3,PC4,PC5,PC6,PC7,PC8,PC9,PC10,PC11,PC12,PC13,PC14,PC15,PC16,PC17,PC18,PC19,PC20
A,0.26781448718896056,13.454074068278503,0.9750771590384165,-6.498643758343207,2.211397633733544,3.3722346934972642,2.514132148761427,11.840943614421244,2.9650631000630265,-4.041386026269911,-3.155665858367344,-4.274597915358628,3.573032205487152,-6.467952753856091,-5.818935790030536,-1.6587274608337461,3.286464551535653,3.5477390400611646,-0.07288774656072423,-0.5831841306979042
AAPL,-0.5847924996779843,17.083442966735014,-0.5202220675881777,-0.5086639542095794,1.3885021793253096,5.500516466570137,-5.532745547390483,-5.159201355841655,1.1227775986159472,-1.2146803515536084,2.4067963521114155,-1.2018843140548214,-6.419899771402004,3.667525953117071,2.220747392500015,0.1084541394121741,-0.6758710251384012,2.379665792904976,-0.9418511640990068,-1.1306336773488697
ABBV,6.432043431289543,2.6681587422414563,13.11457908438369,1.819186355768829,9.822688148154594,-4.939985356809285,3.831336427009496,8.347854662611713,6.654378335522292,0.11728933849956741,5.0039509294225475,-1.58931873416684,-2.6649817416533446,2.058828400342127,2.220681466403631,-7.258594170053933,-3.396609892251508,3.9456991566599666,5.871314400848508,-1.5501765056148091
ABT,10.53519492964588,11.135882049185977,5.513220642618765,-9.428303925030267,8.355397285960539,0.4456293427331912,1.7529579538103959,10.601081265016402,4.361464676279995,-3.8761330233804383,-4.062488865829142,-3.7999616316114833,-0.35317510070843605,-0.49289320486406496,-2.791173588465863,-3.549441579961067,0.3437006830298507,-1.4018151305324675,3.1992145471290043,0.9521132726934409
ACGL,0.3146076941514749,-13.392711579660453,-1.429298640357206,-7.612791353218107,10.624769981723635,-0.9634578361511459,-1.540803901207067,-7.70108118319484,1.1612059099651049,5.680977433527032,3.094274890507002,3.7739076536526857,8.344615545501343,0.6906745532082262,-9.042750805475896,-4.347708737155533,-4.0210452700721415,-6.056198909217527,-5.336872110469056,-1.7392284248292071
ACN,-0.19688679343171836,9.039084614397282,-4.49528652179874,-7.812178930392244,5.555975954925839,3.9550768285192963,-0.3696891479146711,-3.289383303420464,-2.8851513698385163,-4.365329740205236,0.2849523818706271,-2.674806828727498,-3.9335206451746165,-2.192551299794092,1.472443913534433,-1.5160770323032395,-2.779936617370529,-1.715311295354464,-2.8864712459884094,1.358964556071968
ADBE,0.21542401726239302,24.023143141234215,-2.8515860488420013,1.4704143615348213,7.817888017618156,4.939396708643457,-5.082006463412154,-4.978400974518273,-4.403061841366314,-0.7166834662186076,0.5104015124939023,1.9548918611410382,-4.496604253584512,-0.09089857631349889,5.246581757521958,-0.05698105414347237,-0.801827326564595,0.5502324142492448,-3.996551432694076,-2.3885887742434337
ADI,-9.874254944676407,14.503753565354183,-3.7671119522154326,-0.6492599648836443,-4.29436975917686,7.9784364620006585,-6.097024705537456,-2.0348036096589266,9.687811557216342,6.4366440973579575,7.568655584394749,-7.6929183353070005,-2.0400979249805737,-2.2352815769205043,-1.1414969410911424,0.06564572728397805,3.5368384011422553,1.7671923015443187,0.06443339629719061,5.352239289106196
ADM,-0.623455084042444,-10.072621941822677,10.049157474026488,0.7935211024998076,-3.6097269158774923,4.1769189648130185,-1.597684444726123,-0.6958297542264326,0.7514343747364843,0.615791565489814,0.907797477586453,-2.9256317566690844,1.4691417913904123,-1.866352063809732,0.014056870932001647,3.7513170365321447,1.5403027779108993,0.9996210861673048,-3.0592549278326846,-0.012786984187423597
ADSK,-6.392920496288678,18.837063891009187,-4.235177555530113,1.204645948009285,3.512410942346963,3.815480499416876,-3.419682125626725,0.022903877556760748,-1.203005445577493,-3.8139488206434073,-1.1193432360173112,0.37351871618390514,1.4020724057118061,-1.3955662068240051,2.8749007717216792,2.84447240629628,-1.1123740435927854,-1.5465756035736649,-0.7721709565988711,-1.0449174414386047
AEE,31.33651029185439,-11.429169577724341,-5.85977182441387,0.571757545335482,-2.4703594201445664,9.104249226556329,-4.455775240770798,-0.0004729024341343169,4.869269937587939,5.319779231141041,-5.794448123053832,5.40285431927324,-2.3461057805581778,-1.742163169788177,1.4790402862576768,-0.137827394533763,0.01711590789052163,-0.805713387335013,1.0459196401940503,0.6669188529838437
AEP,32.56316085795941,-11.782637444819622,-5.566618864471308,2.9018726790224596,-4.59294342006521,7.680683990012172,-6.003016644845558,1.065505490225658,4.5247241703095655,4.4356962842552194,-7.086508422195796,4.53636396152326,0.19205110339999382,-0.11043682397378042,2.207601179119738,-0.7778108150457371,0.302751768722262,-0.5193357852757606,1.7546366508155835,0.33644311906116076
AES,2.6680711219813444,-6.832416801801007,-7.005684856999821,10.459178017738974,-3.3407819485798846,5.572149491049873,1.8427931521615262,1.9615995138484998,1.5982535516200822,7.283543715450895,-6.418669640812403,-3.9897009770950307,4.64586880156944,-3.639069219276679,1.4803698374324334,-0.11637639121585107,-1.5930932918124339,3.3262169215271227,-1.909530543277034,-4.829355537324575
AFL,-6.420034356358044,-16.436954961451534,-2.3484595976771074,-4.503433080522978,8.506832728106017,-1.2895537823084435,1.9791780668849779,-4.163823197916665,1.0655281562374932,2.606715057456465,0.9965504371335859,-1.7789344200730406,2.8440401523671035,3.421437954744677,-1.6030108768121405,-0.05658222684062169,2.2299225078598504,0.8263917236507863,0.2159569728444031,-1.650164338384983
AIG,-13.50748008813024,-15.693309788033353,-1.3963272836248917,-3.4625729127770817,6.918337198859128,-3.0027696117785054,-1.1657279735168375,-4.113375002504523,0.2951893778801998,5.220319723931774,-1.2614562424730222,-1.6418685146528693,3.228579293138889,3.0336979117720357,-0.7325059053548505,-1.8898265300673167,-0.26023100862357723,-3.4346844235990712,-1.1622148619662627,-1.6767724253555611
AIZ,-1.8948608712191737,-9.673631172507575,1.800558892323464,-4.727220789892628,5.324540095413606,-2.717876133897317,-0.33333410108275974,-3.831494032388683,-3.9720364902741556,9.190965289289501,1.9846421989811778,0.7214031912944598,7.036791567308354,-0.3170979422182919,-1.8734072044368957,-5.484223408849862,-2.921836967196593,0.2507717822261495,-7.542932618314101,1.2269470677595797
AJG,4.76417051889858,-1.8568176945915844,-1.4397835187132964,-10.428153094961873,11.244620709634573,2.944791569904403,5.40571930277069,-8.655312300960336,-2.714735789653716,2.6764297631937337,1.1268780445511768,-0.16976391223813045,8.756844858456876,4.429059955420467,-8.271412629345031,-1.2655489274205771,-8.891379896257845,4.413295063540974,-2.5041630789673297,5.884286018370929
AKAM,4.332907546693785,15.035002102675113,8.996134241993351,0.6297919691511061,-1.8606292480351112,-0.17509822728812152,-5.936435393405549,1.565802845425471,-3.3380923510836156,-5.6429617530588105,-1.2326421778343002,5.692051535442561,0.3384082609730413,3.2577114926408415,3.057154517115707,0.4673257537193017,0.8833017791391976,-3.2290334090721733,-2.776502121264863,4.5682523334786245
ALB,-7.338985071480449,3.083947884633816,0.7940885644158232,3.578724562977545,-10.863296253964542,4.755051559738602,-4.278425274205148,7.051890613530572,1.630713367762139,-2.393368169334554,-3.3477355006215155,2.678653891177206,3.9423132176782953,-3.2627253224579227,-5.115373172915107,3.3766575867563264,1.1883012031457627,-0.20371090503342054,-3.8808770463608484,-4.634649981676785
ALGN,-4.1350599104363335,11.51171204347395,-5.902426449333826,5.505853018157677,0.7351255157170757,-1.9472215717451349,0.1754198644200285,6.929026461789165,4.497208092844312,-2.3220296319798512,-5.06217937441803,0.2696426025647489,1.6705097899814503,-1.059888119703105,-4.576855072725207,0.8597786728014664,3.2536333723737285,-1.8852289660683943,0.39320891902367583,0.9714766490225122
ALL,2.192714598520664,-11.625405273246086,3.933432456475318,-7.560379848887383,6.451527581901583,-1.5754313662357946,0.2267214892219339,-5.023267277387965,-3.1812278209427403,5.167192288748691,-0.24711319183657224,-1.2488842031986316,6.117808342213078,1.703045676115423,-2.3147227591462047,-2.704394901709702,-3.2111917345476417,-0.7772308919707498,-2.730796153057312,3.5717738423893524
ALLE,-2.5862194000185665,-0.2956872920016683,-5.41283925886248,-8.975911141547526,-5.181247619001546,-0.19161156239505697,2.869463691129728,1.5752778075130416,0.1474793615433022,-5.374479060979166,2.7911978010359197,2.3714715109162814,-0.47539991167297274,0.7945590826013039,2.580149367720533,-1.547986532536227,3.0020122667938844,-5.354399452027693,0.6145038457725109,2.0080020395395626
AMAT,-11.059420664105085,17.440224814522757,-2.875258081818894,1.7290995052998923,-4.843058497309783,8.73519389186709,-8.103180170275548,-4.855001504469057,10.476985704124564,7.173622962489202,9.740560406364018,-3.63618635586532,-0.9583427129669871,1.8745671009154357,-4.329995644936992,-0.8466233618500478,3.560991070206497,-0.9879285104546992,0.7157863780929757,1.0419496150351695
AMCR,1.5199789106695367,-5.760884826745169,-2.164668149203736,2.2437525226846518,-4.092391299099896,-2.5204318884461845,3.319852664092721,-0.23556082537921585,1.0031744716531281,3.3779971266951456,-5.837284446695646,-4.571112172003394,0.13338548428248403,-6.174125741221657,1.443065584078342,-5.14459229868293,0.03588380178223931,-2.1126199100069374,-3.4361081332815706,-8.681042790217877
AMD,-4.311429047773404,19.078586828750634,2.1904632081943816,7.718135579081401,-3.465184655324162,3.895967605134007,-6.606147383798841,-2.6029763917265587,1.787913593817798,5.041913356158283,3.409163622046532,0.7750875062460432,3.644943041784537,1.91990578104977,-2.0267105318423475,1.9859894878136763,-0.4384610105119095,-2.5953437469236205,-0.7815303969119898,-1.347368909539698
AME,-7.692812148181656,-0.9353794056413827,0.0013091032400405769,-12.069365660933597,-2.16975688885338,6.708697288350912,8.233371786032071,-2.9319126615314066,1.5838938213797127,-2.639833762777276,0.8411599594839976,1.7137117362174965,-0.7973094345469133,-1.5839470629830565,3.133765005545465,1.2010914231008147,0.8176823094628884,-1.4914065246704378,2.1872147733119145,-2.5295376941310748
AMGN,9.46256059242914,5.7992475383936295,13.987947443863014,-3.6120532865849455,5.601704283852509,-3.5027652309225346,-2.0887763116573628,8.959178135352325,6.088058667430658,-0.09100922207319821,4.9700951892481875,-1.792813352202996,-2.7929305624654654,3.435810151825606,4.437710247785732,-7.033512183664374,-2.363639883168866,5.568808550025641,8.67150540837831,2.8999382078116573
AMP,-12.987316407047881,-6.299472289260817,0.294775584874744,-12.611580133773895,3.8783526251866904,2.29994763123996,-4.717044979685032,0.5470186868451906,-2.610604915787898,4.265489018461099,-0.7779797798207395,0.5836183316601687,-2.0740065121180224,3.0522513695758193,-1.0499375564134996,0.6070215570910324,-0.004978663157716222,-0.013934124083397201,1.9081901045931478,-1.6481459307054644
AMT,21.367460903697353,1.7315316145367508,-8.924579728210123,1.2644293678109295,-0.16148751802085176,5.34837410828617,-0.18314857419641214,8.213095300020667,-9.53476622027662,-2.339036364446346,3.2483241751666494,-4.9286628165133655,1.279447696981071,4.939776322021335,-0.9560026638131301,-0.021783938903446962,2.167488782697643,2.0433853659863117,-1.98874084847451,-4.054688329427612
AMZN,-1.1838020539898415,23.25479946587298,-0.02687332164046117,5.937054871639311,2.57187775947027,1.1085918186997048,-8.833812320799888,-3.4887766797326543,-5.957997386563491,-2.4434245201348714,-3.765409730435262,3.4403813732555695,-5.124197395500342,1.4808183293350652,5.902025950467021,-1.2228544136719959,-5.67719144760838,1.3542156395533202,-4.03093990147162,-7.314180692104338
ANET,-3.788931123832809,17.486107705289353,1.7473893704460686,3.0255935475764524,-0.06873352161075082,4.319245551797555,-5.473790555554433,-2.955231739496149,1.1506125892353014,1.5346400915649294,3.0078702895578715,6.2371874242500285,1.8234262927278753,0.08315848125080245,1.1533659358771458,2.069818936935893,0.3891997016848826,-7.406103204582757,2.229781191074514,-3.9236900438984215
ANSS,-0.5986029391831402,22.274247523786265,-5.051808233874499,-3.2456568920121494,3.3218122377959367,6.116698198496427,-4.251821896864588,-2.1895490982975985,-1.6924462801154097,-0.7955309063732515,1.0896643426642167,0.9051639852618022,-0.7558163278967939,-1.7874118845134137,-1.245951196732345,2.90184415933178,-0.7955261685963277,-0.12623294795271586,-0.6050080469717026,-1.5787659533173704
AON,4.0587327754377975,0.6182336078258911,0.13821723857375592,-7.373857677904882,8.257412781548139,3.2895359861932105,4.312034502400582,-6.0262859530952735,-3.462366326445935,-0.11270076957654523,-3.360675383844487,-1.1005319298279,5.632006052838567,5.06016081926434,-5.391140133770057,-2.8016456842770685,-8.458973789353243,1.7103346817496565,-2.728289429060984,7.709763701897345
AOS,-6.1547333173236565,3.665928788551243,1.1680127233755395,-8.307167549611812,-13.267632230921025,-3.4780138836548202,4.767392593244165,2.393512351381916,0.8600594087721162,-2.47743269190547,1.5923611998744216,1.9837152532298574,3.34727588080304,1.3390370317209985,2.277164275052416,-1.845275217992241,-0.9369858108346784,-1.2872356494306945,-2.5987860385210144,-2.531741995047709
APA,-15.985176687839614,-11.741374068597867,12.065457057207912,18.57456175187713,1.5155356111132208,11.763250482218105,5.918855715513943,2.0292891236851105,-6.56111329072623,-2.961802959153009,-1.590637315666321,-0.6425426424805949,-5.779485845226864,2.3814805569638304,-5.348559203519855,-2.235113862049837,2.893793388197256,-2.5303802456911764,0.4711324345405288,1.1981293799128216
APD,3.312428005836847,-0.5460518123966029,2.328456742656774,-7.303429831688725,-2.627235257451141,5.755811637921842,1.2409812893399026,-0.2018739121822826,2.54536947562226,-3.8916096344069455,-1.8556486741267448,-3.379740801761221,2.07571885329815,-1.2719918616510457,-2.7643809027966326,0.06937929099250675,-3.5641639797540736,1.9307957294861353,-3.7863906433721706,-6.291957035139105
APH,-8.685549255210065,7.578593140771581,-6.626734311249291,-5.712407858510457,-3.1829980037811905,6.93089875315345,-0.03341278349845788,-2.6757650619267346,5.218933423855391,-0.2572565049225231,4.592999849152019,-0.6765739088345686,1.23894739003108,-2.3905927739303663,-1.77923259812562,-0.4756761662600987,0.3745485170294068,-0.048840987032658295,-1.2495840340872915,-1.5946969783474296
APO,-10.211694959949241,1.7110729406796261,-2.9645431793551076,-1.1304485928593044,0.9756975826139869,3.5690394063053206,-1.984886925507066,2.465296791816911,-2.784712120319609,-0.6424956213174979,-3.0877950707175073,3.2562123594734227,0.45845041967004585,7.629012465732158,-0.5491388228436914,3.3110681376357016,1.3218560358658376,-3.670809552397683,2.374806435966868,-6.652492857660515
APTV,-14.98016351850345,1.9882317467737087,-6.674943153419807,3.8989889872934502,-3.3007615713517864,-3.7396294696347008,2.6886338290043263,-1.2035690052245842,2.2313792974489823,4.580915160005584,-1.2238255769193065,-7.280102507042917,2.199747775134077,-2.4744045293598247,-0.44505316619116475,0.7849136473373903,-1.0189581956440255,5.87187408988819,-1.8391705362077604,-1.2129939720468825
ARE,13.702733186090981,-2.193287638574531,-13.59206448700386,1.7695071877019928,-4.894498758736579,0.3093978512236941,-0.8781929980967436,11.222482078264585,-8.908441189162568,-2.304968296656092,7.992212971713975,-0.7283118128334103,-2.1902744050382985,1.0770673916761568,-0.4850714410407779,-0.3556669033177023,0.9106577324043115,2.2909702326462997,-1.5358632084287225,1.060780470582809
ATO,26.930187877034168,-13.103908916848246,-3.724283150826542,-0.2092143431472716,-3.9089431674769943,8.25396369930978,-4.406146644306765,1.1435180404298728,3.392009048847967,0.8433998966735585,-3.6990473921564173,5.569257475573773,-1.8337213411811377,-0.3219909039085039,0.08161581454540688,0.7788002466875005,-0.9239890976291857,-3.895998776415275,1.9067899221077387,1.77946359389126
AWK,30.429321005450873,-4.15555027471121,-8.178998542559198,-0.8123323930352785,-3.5842830099046115,6.330217759287516,-3.5337405151322074,2.481096211522839,0.9002648959450144,1.4589238770291033,-4.978558045514214,3.220430346937317,0.8878364869041058,0.5975206646142197,-1.2305118628048546,1.1296519026568559,-0.14038597352918578,-0.02738778102666194,3.66717553731975,-0.6420794347849089
AXP,-13.203829949392844,-10.196962036503638,-6.326669010902333,-4.192408345464704,7.465643253507314,-1.8281309373043095,-4.925170905866002,-1.1964699817316233,1.2615036497737648,-0.5191236424658164,-2.0659894510485834,-0.018281649441575766,-1.4972273394345752,2.146540436807312,0.2617011491572579,3.5316804877823627,0.1135355052041307,0.3858355287434194,2.8504059453323602,1.3033893756858401
GOOG,-2.9347305524227205,17.891983218636373,-1.9713122638674543,1.6398729614438154,6.910867927362703,3.3067173079372374,-7.82679052115416,-3.6357800524191637,-1.0083891681470976,-4.6070998332439705,-1.5825070193312396,0.1951995087168763,-8.958057818132959,2.3375565713510595,5.329103563330456,-2.9875132757114637,-4.186467119477018,2.267350050773343,-3.022893600115492,-6.87128519378857
GOOGL,-2.629616555990264,17.98501167522055,-2.177393050502654,1.7240299850550522,7.052094869985812,3.5169578362510183,-7.87050347646608,-3.7493850018443906,-0.669253296134201,-4.5501032504305865,-1.3000221856829417,0.2055479769088394,-8.798225039979695,1.9605127052339533,5.274442784047879,-3.1400607412362174,-3.947926491192306,2.3880950805586973,-2.794797960910172,-6.846705101277555
LNT,31.309355354473606,-13.29521130776284,-7.464545207580144,2.138865933392987,-3.296049598226811,8.172046643223148,-3.8031689894577507,0.47397913535239766,5.224041069564641,3.4795087166080987,-6.969785149528808,3.0361355394974927,-0.347732172694738,0.20439074545710664,1.3559838234580266,0.36110407737591244,-1.8970092752015655,-0.7291421145073116,2.4949088368856236,2.6253040356185946
MMM,-1.4357361646259998,-3.1612376720313256,4.024639826222638,-9.345898233815435,-10.023390525832381,-0.008989122680302669,1.5742668365562673,1.8027165162647791,3.8968880061887985,-6.30942229852511,-1.4018468518549485,-2.0949913534563,-1.8264444787382523,-0.6133730221234194,5.278455293151231,-4.880077237883835,-1.4562446410675167,-0.5578688807533372,-3.4839798301243188,1.3060936572983257
MO,10.950374872490004,-10.770448083090557,7.4477239094159025,2.3867014602792396,-3.416995291110426,-6.041381910159563,-2.926774180724201,-5.209299241947598,2.8649601403569727,-7.947850790773662,2.4678083182990584,-4.7265393063175765,-1.906977661365782,3.1320207128485573,1.8994350536680757,1.48191221063805,2.2480853062366575,0.5333799856525644,-0.8911605723412261,-3.382463619623352
T,7.873121452186479,-11.184983589941549,6.679353170621141,-1.2999701458010249,-2.0783788473468308,-4.188120934553318,-6.91521077327841,1.624792548253095,0.03246150078237626,-2.9163764761280135,-3.1286549331175055,-1.1326431215051072,-3.0495943531184526,4.401641176986845,5.170780674363536,-5.870535621188868,-1.260145343041201,-2.4837560502974325,-1.4152435306893822,2.6145884803005313
ADP,3.706624042270115,1.9599214433331476,-3.3328564390045963,-8.353097929630183,6.914772271466068,3.478817772336298,0.7370472827684426,-5.183409477358155,-1.2260600280190967,-2.5280570242588003,2.8988232082683205,1.597613736610847,-3.927258760375384,-0.7034336336722432,2.044627952019354,-1.0209534367324158,0.035647506234999245,2.1353228508447843,-1.0935161880460467,5.516732457000826
AVB,13.852187682082121,-12.126435480396632,-17.43048070488055,2.575776896331463,1.3276269269970562,-0.5185713896201815,-2.9228685904608143,7.335522323389183,-4.9373748164991325,-4.502978692058824,14.813315791692194,2.4088404885062036,-0.09237886749576017,-2.121481179083991,-1.0158773305308917,3.876120889021059,-0.8851327358196457,1.5228533130682949,0.6932462298142124,0.5050086744040269
AVGO,-7.77710013891747,15.874028733503351,-2.2840213443509163,3.8673418706298257,-2.0346233990474336,6.161910763393545,-4.143383057672303,-6.7133899900324785,7.443695917785414,8.62004594941723,9.271393865004628,-5.275455931417934,0.5065289425532182,0.23267001227870887,2.068144943471035,-0.6105465229850904,2.083817114397695,-0.08145987005089445,2.30777195013581,-1.041515674196538
AVY,-1.8526461219629926,-2.2384394430012553,-3.2394782220397476,-9.483945447147372,-5.683906357705742,2.067977241479646,1.881028162858872,2.4602371519011283,3.840431882404606,-5.597194143600053,-3.339678106086334,-1.200807450900273,0.9337668678210531,-0.3487077363051502,-4.829146970140006,0.10269008576219109,-1.613564297335815,-1.6118987525583233,-0.44041975370071196,-4.371467028255842
AXON,-4.48316646619503,11.26606725207642,0.03799529384019818,9.593103243385901,0.17599164956538477,-2.884469188727534,0.8558141760360469,-2.508717433023352,-3.9152112411371034,3.6745843658604374,-1.514356603784955,5.556918318987513,7.820674108931492,-2.5931546288566723,1.8311102868979061,-0.3508720433065819,-1.9462332866969254,-0.5777894473236301,5.213539494928786,-0.11315408433488039
AZO,6.249981432684154,0.13637251904033165,1.9319025468962026,-1.345844861217596,-2.52939604440084,-9.468504145614185,9.225105962691854,-9.268230298442035,1.2862808582570087,6.310026725608712,2.17599020554876,5.721677695687488,-10.51018763550996,-2.494217741278244,-4.956859488511374,3.1235053739241083,-0.18167772443595614,-0.7312515692555588,6.316039098802999,5.103941601826303
BA,-10.944528509862213,-6.951520386447693,-6.5175644090709195,5.674987259102892,2.4999171609364823,-2.964732803099496,-2.84685634788479,-4.34028798814507,4.892555127160657,-4.173698703696667,-0.8569700455197592,6.250202537997655,2.8381458695479758,2.818651031501435,0.8496605731529153,-3.138775428306077,5.736555047062417,6.506783095338902,0.8976180667517916,-3.047742284971094
BAC,-16.61133497576846,-11.715058683219358,3.917266415015431,-11.41520881084133,3.923411247071418,-1.4872857131209376,-9.080831063093651,5.663526122588083,-6.7854654567060555,5.505598008724975,-2.4638624888796032,-2.4163706419423256,-3.519639557924082,0.2512844168572429,1.2797320773653447,3.1281794302743284,2.655029621024008,-0.08089290588066152,3.212511734028733,-1.6469330647941738
BALL,9.50203283564127,4.778951483827722,-0.260357030690895,-3.8454698580284723,-5.8253086402131835,0.25916753739663523,-1.0561535835815803,2.3571421580528464,-2.9916221936226677,-2.062854787068878,-4.905535491165181,-0.6496876388833539,5.580162733987062,-2.213601113634544,-0.9095311210456567,-1.581587161144486,-1.2677052066904402,-1.3201685634092362,-2.889343418880965,-4.197098053531331
BAX,9.92666528284279,4.653975201458528,8.328957210708012,-3.3076069281809586,4.356569440050115,-2.107167561404869,-2.21919041322297,11.917953688566037,4.207417443442815,-5.065841210671203,-4.3673391903373835,-4.0542190241016565,0.4842536288459192,-4.337148837004168,-3.2457458246580986,-5.348305178040819,3.1028517314854045,-4.799079075219884,-5.254020952215265,-1.2510233232631938
BBY,-4.237614243319611,4.419293216081087,0.6289229351039867,1.7681846547110627,-11.027268146199004,-8.574523807295181,3.370351228346152,-1.1594160050371332,-3.086074277577276,3.502075775673342,-2.983942796515586,2.959312657335276,-5.482439837950194,0.9614861967370845,-4.972424665657099,-1.7047982064707774,0.008769596591580574,0.1629676015940584,1.2383755600883068,2.5214386724785873
BDX,13.237363495475629,5.857357471911126,9.44239243397525,-4.442110251950611,7.245650809944528,-0.30849578936839633,2.40702869477664,10.951281265687562,6.433523767680101,-3.1215271400028026,-2.159656416684266,-4.123852420995321,2.8470097936566034,-3.940359715664266,-2.180260475351395,-0.3516244266720518,0.9552132417691785,0.6070021428273572,-3.6827885079053257,2.474053366608861
BF-B,13.042057902293616,-1.1773504787537181,1.6038851685255655,-1.6634277905903394,-3.6296399251944527,-1.4519464605290089,-0.6157204961192762,-4.2901993638911495,0.03761324552703826,-5.656697860368034,-1.9348998473611085,-5.523946647323282,-2.5347589977741563,-4.193822224115146,2.151063968858744,2.948815183329056,4.627542017478881,-2.0751030531552606,-0.6630167292094041,-3.9462699021189707
BG,-3.1332015657256362,-9.215439433474177,7.9894165916153135,7.487557210705107,-2.0623933881212095,1.2629968865756684,1.28173152145463,-0.8418236141997809,1.4098120190982815,7.6907444061696655,1.071657726215857,-3.4582019494586347,4.445185793286371,-2.1122641604649273,-1.0208189891445245,1.8041841353365577,1.3186648976375839,2.3611481607417586,-5.6911599104712005,-1.264011173566754
BIIB,6.357760987859868,10.638581132885943,12.806016574418596,5.578734124750493,0.9888012107811055,-6.1936921615104525,-1.0673632840214327,10.098810915347112,1.9470767826074509,3.914946944993236,3.1998153036350856,2.5089019215492354,0.007001624306157886,9.672927314760608,2.5982154254265954,-5.987969222455668,-1.615474362257058,8.390520266373636,8.38170811022252,-3.3489903063519773
BK,-13.028763918648808,-9.492454420346709,4.246288273146661,-10.745467886555579,3.8947196546439686,-1.7384822875955808,-6.825343790155683,4.022336402232561,-4.530154983592419,5.475806594409705,-2.043773424163005,-3.248293846276191,-1.2696294996375055,0.5995149024092057,1.5288281328959463,1.6076441644658934,1.6342066211732913,-1.1782661704888808,2.0233847318210025,-3.8833686288641864
BKNG,-11.60088735515615,1.7068730079118184,-5.49788282899558,3.631775089076757,5.402993810468746,-2.961087502444986,-8.797114079882078,-4.351712674360106,6.521901682689106,-9.449534878544656,-4.479436530005233,1.982558325554816,2.208255409270187,1.1406813698203113,-0.634901947545911,2.661331870878987,-2.7287130875169088,1.173391145256685,2.393469242909851,-5.362594198204517
BKR,-13.030344370188898,-12.578650663693507,11.006770844865612,11.506700340149678,0.8427056510984736,11.661112481853108,2.7618808459472106,-0.33604456319760917,-4.399260476370982,-2.564918362232087,0.04700907458883583,-0.6249436530127231,-2.4390513980237847,1.8611739400507399,-3.112199305908059,0.3995663658437534,-1.274911393090168,-0.3516183011008547,0.5621167892756697,2.2770188182213063
BLDR,-9.491874054547509,2.6694901957496007,-3.634135243685338,3.6171462778738186,-8.681285439979435,-6.745751003753953,7.942165273640359,0.87846570342213,-4.184179608458287,4.3922453475359875,-1.9989117270130905,1.0406907182353695,1.9554658101680265,9.873635914106519,-1.2254288639520086,-4.704906209811545,1.9012687543983755,-7.272988093280729,0.938979787578975,-1.8724271356054747
BLK,-6.014976768083599,3.339013668125171,-2.671543350230384,-12.42464686204298,-0.4672255581696425,4.23374407046611,-0.5025802188640502,2.8353519958885345,-3.7943533154086633,1.9180019711701817,-2.19344812167569,-3.0263230379065327,-4.9676609672870855,2.0730785961286773,2.365295874225974,0.5994475649850004,1.4329769015120344,0.6419359252772345,3.263531457194687,-4.2828639629037815
BMY,9.157422794477005,0.8334237886462171,12.408963723574216,1.119111446245901,7.02319737038431,-6.084230817113086,0.3573491239613509,8.152954555319704,5.47313988174452,-1.8998815633387014,2.185793805217496,-0.43117757305047993,2.0651580776598006,1.2255636481928165,2.3816492065632326,-7.194825574606282,-1.1230584810083044,10.895359675377737,5.467010579134097,1.9274251272063336
BR,4.581030640870851,8.972251851614443,-1.9645009385853227,-7.489352097589448,3.1964939774961625,4.8363205063067465,0.8235179448055828,-1.093966859067458,-3.2414444891158194,-7.86331658149591,-2.3292661093047657,2.095905689944837,-0.8722424837177566,0.20494342883277733,-3.7291141048899696,3.216760579432287,-1.8197061993868435,-0.471921711696541,-1.82216098199256,6.2323712523633
BRK-B,-5.031577891864489,-8.900521368439625,3.2053418852219218,-13.380395949587433,5.0180628344861065,2.8240426096610807,-2.699673219978387,-3.8749678569618933,-0.8133329645001608,-0.8301895002501976,0.48850266543042126,-3.0229486897160007,-2.2296777093691422,1.0530060115580966,2.107339070999475,-1.3607011391662984,-2.9474861226327604,4.362034121151631,-0.408234470624351,1.2047220690967495
BRO,5.225023556541556,0.6505036354884967,-0.5640664774093522,-12.272315198703307,7.506085325042619,2.458899253235516,3.0227782255465976,-6.768712796660244,-4.5969885808143855,1.853248063617617,-0.25748268514659906,2.9881659548308526,7.025073989391754,2.4199227288678036,-7.050198986256088,-1.0932899818458883,-7.903955352150243,-0.4219823690635502,-1.8429179959741258,5.871657797216274
BSX,2.3392168442889103,2.8817657665938086,-1.6144425677807428,0.36057701728867886,12.989653687687552,-0.7650202787237359,3.89302313422244,2.518161561109288,8.060194968871347,-6.533166828139015,-0.6781586019237896,-2.3115338833327153,2.14739113109676,-4.325142839342861,-0.10329520436429922,-0.9158735608165456,1.4524381633319998,-7.394184736712733,1.7332697786336586,-1.8376574724021832
BX,-7.652545063383588,6.523072056871978,-6.051234319378501,-1.9986988091711384,-2.6743951757311524,2.626634733055359,-2.680413536725727,5.530344052731893,-6.09493610212259,0.14927788467061182,-3.4644349492187967,0.47029576829392283,-2.2238002488921986,6.243931716611804,2.558806291570396,2.449753726026771,-0.25667476051208105,-2.273483961674279,0.9620670606992199,-5.5371040827285265
BXP,1.0824390683990133,-14.662554841820786,-13.971624945362798,5.36595288318593,-2.798007959180422,-3.6878885721226737,-6.536637708906869,9.403157146410434,-5.465608092831985,-4.684769767204254,9.09375039705223,0.27413544593160377,-1.1764908602035424,-2.1516358721105284,-1.204718757261649,0.6345383820910685,0.3728716254997078,3.0244400928811905,-0.09495127346656487,4.9134741875109675
CAH,3.2901982160735987,-3.8650064888004265,15.278528685317914,-1.6550984707209124,6.332104972563735,-8.268916653724194,-0.9976335327683676,5.187135906445705,9.188227072487313,1.7578063264062758,5.561646528877422,4.571664350840496,-1.1266802808151555,2.1358265566219274,-1.6781697896540988,1.0039526746501215,-8.324184227262137,-5.899329682423676,-0.19772237070376963,-1.0296934766883494
CAT,-14.629031200837291,-6.058652107126272,8.728802616832436,-5.1600274283649945,-8.978493386210994,8.296012224967207,2.2473883228293947,2.592669210647965,3.2535886957428963,-5.282203514565942,0.04502145440830497,2.4170956776338617,1.5669033459393487,-3.5754268906051987,4.379870248675828,-0.2724806809959733,-1.3182140994228067,2.022347616644107,0.2665451043561248,-2.7677021057018147
CBOE,8.54765357237825,-0.9680090581470886,3.4066328543070967,1.9394878781760159,11.51885038476233,-5.468714333154513,3.396656337742564,-6.847823270657541,-5.297848720599485,8.00762403224878,2.240972506494757,0.5115789867064487,4.424976683062489,-5.1287547714803905,-1.3705155120316126,-1.4046889541668621,3.7450054076515906,3.343247185354383,3.1204061071433635,-3.9845299985453106
CBRE,-8.40893431673111,-3.9958779345344824,-8.952800529270494,-2.8005099682894774,-0.46187272644610244,-1.1859380383981042,1.7499292182289665,5.967459647777364,-3.124343108259201,-2.076533393605089,2.374136974267228,-1.217340613669319,-1.0931838949470618,0.8163748543343333,2.253919335879956,-0.8484048442675236,2.100219760809632,-6.099905319229699,-0.2352383115513836,-2.027682270097932
CCL,-16.439615243701237,-6.620545524164826,-10.603702665257918,11.344545738008934,4.574815954575937,-11.096831781471419,-9.01729101283456,-3.1493986771891014,4.967200678200937,-7.132206220229004,-4.004735402566795,1.5210198984178545,5.0034027089804605,1.246859039252197,-0.9844035585221559,1.4570591637070236,-0.03812424660763442,4.535869074993609,1.9054895838486876,-0.718692680376311
CDNS,-1.7681882384443026,24.363490531937334,-4.381372781495989,0.6669649605361597,3.2770261944766426,8.577561233444888,-2.222349342595662,-5.148755668556713,0.7583353021841216,3.391266989573349,4.046296610758559,-0.7703398776312539,0.14029348838285288,0.886450242580854,-2.832439779833036,3.34717847209862,-1.3862407384604383,-1.5536704420686225,0.4247712608948324,0.627511409777628
CDW,-6.0428394136620245,5.83143143087697,-4.447669360500834,-2.123575295033291,1.6351907940612016,0.5928875136151667,-1.3652753536330022,-2.9490862865289404,2.641639821917468,1.6005078078943284,4.39538535236655,3.0479397263435324,-3.317899185931891,-2.187070089807533,1.7939289392103595,0.6854319186412502,2.116639795002213,-4.54331951157779,0.00266919358443894,2.8971952007383615
CF,-10.627111220453346,-7.572623698155376,11.624585471554521,10.320545315429603,-1.2160124185287033,4.646279658810536,4.617813018389681,0.5549527794657262,-0.8826175037349162,-0.20243728604779032,1.9232812650096387,2.4164661530295604,3.2624766953635063,-0.9931260877490771,1.7851196014476756,1.2395128873106538,-0.32091313646932984,4.670307849974457,-4.663616050318225,0.7421834152747409
CHRW,1.6937126262948246,2.6797583985221074,8.37034429196497,-0.21120001337223757,-8.855460218473267,-2.7120896452957397,-0.04117350746451162,0.611316629510138,-2.8034479077166337,-3.818084430933402,-0.5706211543046276,5.197184164156133,-1.9347554583033402,-9.07340774976553,0.47361771682231957,1.050555936024419,-2.639467801226383,4.472224951208371,-6.2306676740055025,2.8917353294104453
CHTR,4.415532301151743,6.66838072015316,2.2504248387263255,2.983380193023301,0.9057259114359992,-5.546522755006696,-1.8663836505002425,1.8011587364893373,-4.58723973018854,0.5216187578436915,-5.1853455061798455,-1.5039354856701752,-2.9270810080121805,7.350252391382207,8.598771799853985,-7.138202399561539,-3.6703441193334907,1.490851906700202,-5.473208967067793,6.042103099870223
CNC,6.321125305146677,1.891667443304401,8.504139728050099,3.377940142963482,9.541325537496983,-7.088622408449243,6.230790785099894,10.039114115060752,10.66190486510186,4.430860177907544,2.248050213899143,2.9885070705131027,-6.612411895831721,4.721063546054647,0.919476158882236,16.946645590789203,1.9869561795281232,-1.387205907557801,-10.658944152295325,-2.749281884514938
CNP,14.438587529924051,-14.92360829858415,-8.107028477344791,5.327840372982599,-0.4376155459435297,8.860627089704359,0.16092743764978193,-1.350182479256295,5.576157229406033,6.011194077349883,-5.9062005380591796,0.7983945755577704,0.9485359267685942,1.2031124791609165,0.4105092315030356,0.9054151104127235,-0.6826928358065434,4.353146975354453,-0.2834966001726111,-0.5009308676754756
COF,-17.12875108251904,-10.984477800612153,-3.8354312109517057,-5.369411965188992,2.1577091885956574,-4.359646844910351,-5.03446028297821,1.9823353123810172,-2.9631463671236498,5.137932547921553,-2.701527080930089,-1.9611397961555888,-2.5968028375895216,3.1885105737917145,1.8199323834208934,1.6203327804506467,1.6413867130810074,0.5105732510026445,1.106744831887274,3.0528372758092788
COR,6.56489155743882,-2.6497457179266544,14.86556803067474,-2.428209476322919,7.894554525509329,-8.811026425702487,1.7565664570708537,5.292383272825571,8.327436836245601,3.724632571710587,7.118496068042819,4.609915994779509,-3.637122648024622,2.3713951184461046,-0.558606117270746,2.4654661687954373,-8.875982884572249,-4.812639129381849,0.3390432623513315,-0.3371521438555825
CPB,24.927396130068693,-2.8374813846169658,18.427314012470998,3.9515326587290973,-8.941055639152523,-9.582794188983884,-3.8653715842732885,-8.73890098368989,-5.067131086089269,-1.5424870350669564,1.8817431274554057,-9.621484807252408,6.68639829029577,2.2628553124454363,-0.40804472281463194,10.353886460714785,5.498954105248652,-3.507683108620619,2.4675023027345677,4.8680483472369875
CPT,14.997286214080493,-9.240144853937144,-16.126955193329625,3.0510020178510837,0.38842083202988653,0.14567390109040437,-0.7137251111927272,8.50408436272444,-7.4623296723113794,-1.2712679230755755,14.441816250814414,0.6048140704552537,0.5155240064802367,-2.957450581190183,0.5972618691798931,1.8084398327681461,-0.25590369066679675,2.0791649241002004,-0.7905330755285539,0.4692579884121614
CRL,-1.2732730972516084,13.65957130504133,-3.720110940956701,-0.20304803381255854,4.369242917141229,-2.3426795284629556,7.409193132894462,11.69295363534889,0.4478806471862786,3.5101323328813665,-0.6502596941580706,-2.4118310956843785,1.8988811246553365,-4.698605265993091,-1.6265297144466966,-0.06122820663262812,3.2367593964778503,1.6659721138249488,1.4002877237195208,2.257408971381045
CVX,-10.59279420673601,-15.407256126863803,10.940464587012647,9.384452017732302,3.996307166318335,13.703261985286339,6.04455802753043,-1.8069476815435999,-2.347814373912693,-2.386886005938541,0.8457356217942908,-4.322387263810417,-6.4392674956435565,1.124489291476473,-4.764719886673007,-0.7069828024908204,0.7824800197342673,3.6633628972019103,0.8210629544740018,2.7023520783983805
CZR,-14.181854070707688,0.8468860614604399,-10.034052292646749,11.39051330344988,1.1717453246969374,-6.536461799968357,1.1296283754431438,-1.93389567465907,1.0592280619175543,-1.5148818412943628,-5.946517119234081,0.2229140585609334,1.539476022462804,3.570760538540847,0.3417619748837491,-0.22515714870014716,-1.4961122452409674,5.919749869255859,-1.1095595857284426,3.5985043634831553
KMX,-6.814829993453672,0.45699572328964655,-5.955043082380654,1.5634307769934843,-7.72612258179185,-8.262143214069798,3.2601229838279058,2.2573681315648577,-2.1241774422961694,1.607744349861206,-4.059886336212732,2.8336668283120003,-3.6433685617842553,4.279289292668238,-0.43884359551236557,-0.461398132309999,-0.37936442107979557,1.5428765479865776,3.7843794005062463,5.766834333777237
SCHW,-14.430128807431709,-5.169562355087943,6.862790500122558,-10.033329229790057,1.778560643763149,-3.0873242000746903,-8.87465923735827,3.6676697375009994,-6.645965124970346,4.1515780951397785,-2.8029874528537526,2.2137442157507663,0.758899599023507,-0.5674538674325355,0.6105412336503044,5.59353616555026,4.336376226990618,1.4141943558920393,3.9006315547134127,-3.98658457962926
TECH,1.80233212686127,17.7100699750924,-1.1481370348523088,1.5483685381425898,2.521299744770141,-2.0266726657258363,1.8725636192507797,13.133478175692947,-0.19781484350591977,0.06288320472562439,-3.4507972011098813,-0.7658216541087662,4.764736819447938,-9.790452109685173,-4.042527989143265,-0.9878873254843387,1.937062958678298,4.277992372817227,0.023898480597548406,1.1978088272292449
C,-17.614763776679546,-11.337246617738806,1.0770848406197027,-6.578089744090927,4.628736617952097,-0.8549622954622708,-6.413971586248274,3.4843769692241073,-4.6953174586080735,5.091927986354196,-1.8145625765593214,-4.793559167343001,-2.9595600111295575,1.7941373756385743,3.1114593333502847,0.42223668150388133,2.2899488994263573,0.6557751387521862,2.068708986976301,-1.4022844786402382
CAG,18.114648792086147,-3.046426596107226,15.135111546448842,4.471731236565866,-6.961787349371949,-9.857904888372689,-3.5603918171198785,-8.28225220034242,-3.0499862803163107,-4.838918826220411,-0.4795046047455562,-8.754479636159616,8.692765767332336,0.847220571134595,0.5470601787100999,7.998476655299886,4.696978665594481,-1.5541129786517973,-0.24482716691396483,4.3519245001787255
CB,0.5836424716464974,-15.436609130566438,1.4509870854310851,-9.460955591611999,9.642486779626013,-2.080179216255486,-1.07767298712031,-7.736900610387688,-0.6228130778278818,5.460192290886506,2.105479928813991,-1.085230209974272,7.385274250700304,0.7201625267768769,-6.988362523512505,-6.983381695019274,-3.7219311188151853,-0.6619822162139977,-6.601937145335792,-1.1651419942169212
CCI,21.088312459001536,1.0631355086780447,-7.559196114835453,2.196878689555413,-0.9954025913260798,4.248736971472964,-0.14804673492895634,7.455411419437324,-10.17815892944909,-2.162532206302702,2.9180500263027893,-4.111871396151877,1.8874086462317525,6.336631647817724,-0.5587073594308752,0.16375563172117824,1.997443031978859,2.818089628040349,-1.7345155166786035,-1.9045142117474485
CFG,-18.51727320404195,-14.455292706420911,-0.014130532110823841,-6.579847955631479,2.8023440638212,-4.941937157842146,-6.256460177438263,5.848769192739152,-6.830910731991505,9.946075939755282,-2.157170951498213,-4.192157341178804,-0.12683644098727326,-3.5455009427645674,2.362452360823398,2.761922219955862,4.40506148564868,0.4811272892001566,1.6789685299790236,0.7202593982064786
CHD,26.560938738163944,3.661158231249881,11.585340787482277,-1.4747801521276724,-5.022359376738753,-5.818992906793663,0.23773116860707216,-8.908077393207527,-3.1994914484085317,-3.6693386460253783,0.483150775023831,-7.149575351384758,2.7119801421007588,-1.2448188191280787,0.02941633369134547,-0.3306967703502226,1.0075789509970878,-2.531777024683985,0.5470638610122872,-3.33068602553728
CI,2.6938062875608417,-4.093345878115302,9.671686004622158,1.2246154334249493,9.948362536060255,-6.374988132465436,7.594762408571563,4.676450471763486,10.589264052930702,4.102055406656094,5.332672093859717,3.908920784263521,-6.320080257721397,8.523700953140791,-0.8769862328643354,11.206093389145057,2.2610787113110513,2.2474876515160087,-7.581382337681577,-3.7248313481549036
CINF,1.2798244821824236,-13.008941384331534,2.0127731220036735,-11.473769974568103,5.652397937130158,-1.0888152647527352,-5.418371443340114,-2.5506814283975805,-2.321009069685184,1.6309983310165457,0.6894108814006337,2.01716300186036,3.149867214989831,-0.28099316194807644,-6.207161868056216,-5.583901644905573,-4.053982833574148,-4.702053295029774,-4.413009441755734,3.0336075522829704
CL,24.23979149573481,-2.693126872378981,6.362580268174093,-5.008205445423622,-0.604909179165316,-2.13450602631585,-1.4680728219410437,-8.558411568929719,-0.19312420494504376,-4.2063502127696575,3.4359769065232237,-8.981652415255681,-0.7405920754832338,-0.2568212082576759,2.6130889136379207,-2.4865334599947735,-0.14811479331523456,0.15064749619659473,-0.3183063034323078,-5.212128356728288
CLX,26.11715574905512,4.861470813762583,13.089705251275374,1.866833184092711,-10.988341653172668,-9.999403031807706,-1.648132787900142,-7.584796702692049,-4.923633608890042,-2.127113601600744,1.486376752164845,-8.808080204315665,4.577230682264003,-1.4714689546661097,2.5605318606460328,1.631187393055485,0.6298897688672465,-2.9606664852923994,3.4364032233464243,-1.1187132048816553
CMCSA,0.8203552769201023,-0.6902047073243665,2.3367582054139624,-1.9302419420716976,1.0555491471528813,-4.917756903963656,-6.952424149784299,-1.8401896114207223,0.4102510547297211,-2.7736560138270447,-2.6208922526092446,-1.809628485348275,-5.8298989349175505,2.368301027798653,9.045481311313686,-7.501776588371562,-6.774587990939258,-1.0178159963248004,-4.457768416419358,7.410972731794628
CME,6.049047433814023,-5.263316020465647,1.33757362964676,-5.41690719642351,13.764213532411311,-1.5724771430784066,2.8472129596800473,-6.0299702505300745,-7.5139565217550945,5.968017171346593,2.7272609361878,-1.706236073893396,3.5054493133956597,-5.627641036641071,-1.8177798927202669,0.22447896467237874,2.044867641446263,6.081611691868707,1.9539076973490817,-5.185989200625358
CMG,-3.02528192914434,13.052016435545562,-2.888806469555052,10.794461885924445,3.9857090224109624,-5.793689082979383,4.693458258638025,-7.7363941371701745,-5.237432301970619,4.8846843683681636,-3.9956154569603304,0.6015608990731133,-0.5352458820251319,-1.0980484503726853,-2.4966575295839126,1.9304269115297075,-8.59028857745219,-2.4100274399692414,2.62937453889579,0.6474416141089848
CMI,-10.580363942189488,-5.682123687294564,4.788831965632785,-8.758159126664822,-10.708049634373829,2.8620717302153365,4.311759863137717,0.29425570606216483,3.9286977314398963,-3.9785012055224382,-3.4016499853424196,0.5116985746727678,4.45861230778462,1.9140258269751562,-1.2376652877769256,4.193425380911591,-2.054793640753576,3.7983591213562495,2.3535362610467967,1.2787531314392888
CMS,33.76924191530316,-12.421420693270504,-6.954346837833812,1.8363766270260333,-3.5756062174998764,7.6839207084480465,-3.8583089660445955,0.2795366458435092,4.54076471946351,4.060575223491012,-6.301960514969591,3.923854276606606,-1.3447439439171869,-0.4460370423309646,2.2151466133233413,0.9574384814386642,0.23876653871074593,-0.499944792542746,2.415616642109348,1.1092454254548245
COO,4.3581925379523625,8.329858332744148,-3.2732429241836614,1.0750617203847062,6.333648971815168,-1.4404298319610074,3.9464878843335205,6.923482515999226,4.077858105570538,-2.2181370052521574,-3.0310074688044466,-4.584793328728768,1.1162347750083308,-7.6338183100634005,1.4669865559966875,-2.1531111203349744,2.2678637003693027,-4.947461752881556,-0.36447796106947866,1.172113748779374
COP,-14.039520181790428,-14.345861412530294,15.614285880400182,14.675469807544351,4.247284028021109,15.540566562618066,6.421520686749924,-1.6807708925979001,-5.812648357461861,-2.691891792775892,-0.5307724967941388,-2.6713137377217744,-5.069964762602204,0.8289131018113564,-3.8657876533779416,-1.9798588296681772,0.8301821952820974,0.9627260369356513,0.7819464674356125,0.24682290560468406
COST,10.75244398185885,13.207271690216588,4.886699511361074,-3.6316386999879287,-4.172854855388553,-3.489428361427965,-2.0495484594013145,-9.991114947446496,-3.716043903165972,2.0156915007990714,5.199273195400895,3.650488171036861,-7.955869923193209,-4.750287522768531,-2.0911821126518233,1.087965640624717,-3.5685211616928227,0.9335670425616143,2.0174475608815956,-3.84011282953055
CPAY,-8.22501230263856,-0.9435411535739815,-3.6300288731189485,-0.43718999367690886,6.624380953046383,3.005672102195717,-2.4660034834732016,0.7423460654557074,-3.5626287748579086,-8.11898675043342,-3.443677841640206,2.3712053786351492,-1.082752920807988,-0.27417723687972134,-1.3096174956395354,2.784709667166172,1.4369168571789517,-2.8271874681249076,-0.5437302670519049,2.4225107363568954
CPRT,-3.2931316486812947,11.274628087781648,-6.820476488771605,-4.101850639023552,-0.6351376867467518,-0.6128106018319149,4.167958975926627,-4.561359509778242,-1.3729265297535196,-0.6720234294050111,-2.664015400705688,3.8417834745869968,-2.746035607657215,1.5659538752651265,-0.01313633905434992,2.2800753816225954,-1.9277990926069746,-4.434817712968397,3.9544120189262237,0.9623776778466328
CSCO,-0.05030157081734672,6.371308829549495,5.32014691891371,-5.958280217868991,0.6803183233015433,3.8331894502884687,-5.120333730868739,-3.273598791980889,2.182303450215955,-4.060143717847527,3.4830814942400474,0.44651499153826335,-7.806685908683099,-1.7700209747156657,4.092727503206817,-3.7975417449797235,-0.04546612862647111,-1.0444978604689419,-1.0130788265596513,1.2452917767068736
CSGP,0.6613722297806446,13.929399873127036,-5.085859168575983,1.6093298472953648,4.151350289774175,0.2458946672694947,0.5440562937695219,1.823660220474819,-5.197804656823062,-2.1492373937502443,-1.3910176666243845,3.036819252226056,2.8982778796748,-0.7192994219279594,0.5879521543327605,4.86495995591696,0.8270902138811821,-1.6738656673806585,-1.1547866616208733,1.6139912693472962
CSX,-5.10697083254388,-2.6140193384288284,2.106947602054582,-6.94776607734054,-3.0933202243774685,4.857328191639823,5.161983256629732,-0.9029429874026857,0.4838560759263858,-0.07003773636477253,-0.4788075950254424,1.546180707953981,-4.315148848330416,-3.5431961335080646,6.094538767454853,2.1581816873271586,-1.2091936383449726,4.67602398601847,-1.6190043608495375,2.130021289889523
CTAS,-1.4130892640692698,0.794881886010564,-8.093169549892531,-5.139083731014066,5.4018292715179514,2.8284597600850474,5.862475350367137,-6.144015781919295,0.4015185316415102,-0.8429013784930622,2.4517181289140266,1.5354839076628264,0.38987165898915593,-0.20071177613054814,-0.31320605010687136,2.7367563137673003,0.8449639323301723,-0.16645508308997478,2.141304254565749,0.14576228580596332
CTRA,-2.002254267498219,-7.013081814117057,17.22910637853426,11.977383359685337,-5.887742665723856,7.772238717072127,-2.638087247531807,5.6896043898090936,-5.192333937590742,-0.6438006571372134,0.12815594709927575,6.682733160181524,-1.8929863418813508,3.4387869602157037,-7.2457323646850815,2.7454463537509244,-4.218347280107957,-2.3808280669785,2.271619215561224,5.058488721017319
CTSH,-1.2420169797264748,4.414507839118749,-3.2211475352093446,-4.804618354616203,2.547284610289764,1.4517398581962055,-2.818884290478919,0.12880486671001823,1.3997766851222793,-2.2797093976116223,0.088825398428309,-0.37523375248025903,-4.889008944413125,1.333023314469227,-0.7037959253659735,-2.3092590904045234,1.502592376243591,0.3119881896259897,-7.020718295169261,3.0872547372305212
CVS,5.946480173354328,-5.530918930336944,13.969848769662587,-2.201651396604322,2.8722372888425958,-10.058180546382578,-2.0961761286706913,3.7444803109560194,6.103644909209623,3.412512937701142,6.397464918810585,3.3001219940355933,-5.964111299838823,1.3603177698297801,-0.3405282588631676,4.946610936683776,-1.4686074153777642,3.2990680263182046,-6.330791166816704,-0.9712515671986981
D,29.179518310688934,-12.051905158076664,-2.599804945999908,0.04692399229419281,-4.075742725948246,7.285967036122789,-4.546948987421149,3.584444342802905,1.5908053127632387,2.825250124354351,-8.2840406757945,3.8131365658627376,-1.6459220579797482,1.0886315586499338,-1.1806097696203548,1.1110216874597305,0.640130462406054,1.0617307996777638,-0.010756241461729231,-1.4322901963880805
DAL,-15.148287755045622,-7.465097921568886,-8.189419094952168,4.097798081852775,1.2070490275190116,-11.434301493709809,-8.0075065627005,-3.5116465194352844,7.291117801636442,-7.374312426629178,-3.7319435333109117,3.0851693656386807,6.846863478632587,5.975824832890065,0.027368994203368153,3.5810977567058178,0.06112816504816376,5.965169593057272,4.3512170595499535,1.9620069709939494
DE,-9.245097265093577,-5.19488417485879,4.802554670654018,-3.3642434713406133,-6.217293088188426,3.1090491558287763,5.28606544444814,-0.8988454278160226,2.915047937431665,-0.022986400458289206,-0.07869379051450719,2.8172132857069054,1.7532251044660179,-5.180755758327059,2.7657151312307335,-1.1121266023204812,1.5478187157991499,4.625605540051903,-1.574595365087587,-2.3932314972317013
DECK,-7.9832568612554935,7.339723031873942,-3.8545304761768446,6.075814202955457,-4.538923896733657,-7.887955495512003,5.485241615506825,-5.616127963057125,-0.4624929540694407,7.23531517957201,-2.391601992243191,3.4669946747531357,-0.502997026122345,-4.30220030215412,-7.308331498325678,-2.6478667548965378,-4.376139407339922,0.47301064915730656,3.190203593489519,-1.628518429546434
DG,12.13781109851626,7.20712890870539,9.951308263934669,3.964423125750914,-9.079246722136087,-13.926259226482472,1.7958279287209502,-3.7943507015665734,-3.6651411780565484,5.199272501699047,-0.941515389441758,5.723037352360342,-6.571574127747494,-8.344870386667921,-7.6002548082460475,-0.8058707787444281,-0.62224457155316,5.574418622335695,2.3817564734388887,-3.4367558084045466
DHR,8.62488045491537,12.974212878815964,2.159435347253589,-1.2005058361487877,2.0754961780375822,0.6783959934955416,3.7917296151901354,8.025848762646875,-0.4683982205796087,0.19796628210379918,-2.738261862779787,-3.377206299563372,3.0355375193150427,-5.642904713346833,-3.3686251588029634,-2.2602716246904917,1.3111346219294293,5.358676543465985,1.3507816124637475,-0.11488388513100427
DLR,18.688913362860305,6.366046722325928,-8.402619975069223,3.302356889943563,-5.3925950589647025,4.890929166587193,-3.2228711288741794,6.592445094432416,-8.61618879248731,-4.971209642981664,7.974642389481979,0.30044328790844577,2.2195054132340433,6.751191625994762,-0.7449828314576739,3.6966518126291903,-3.5906185484500144,-1.0339095514433356,-0.5764467557568282,-5.550874456596804
DLTR,4.982441068884429,2.0303921359636914,5.1591437679058245,6.483973642128541,-6.679629521648661,-13.445116147788355,1.5404063844735576,-6.853307145981331,-2.8601508348023383,5.315053989487135,-0.9144860032257704,2.2871442774178465,-6.545973412612254,-8.269240627709546,-5.869268531879864,-0.41387294248572687,-4.080855491545279,7.512789379426877,1.1357381801534465,-2.446034199598014
DRI,-9.196025297148683,-6.5821888580618015,-10.494360621825296,7.076705062503581,5.820380664171319,-10.09406035562568,5.622899697933126,-8.538948926691155,3.0598697097498535,2.571983539614193,-3.3732497063455615,-1.6269294717705123,-5.537260159147308,-1.284991225062107,1.0670708557284003,0.48258082851265705,-0.7231257791263694,-0.9733486523455351,4.518611351403428,1.8876646472150285
DVA,2.8611585784011235,0.6851969014745862,7.29719449158273,2.9761368669603727,0.7702556825398078,-9.4528181517152,-0.11181935622664509,7.831839638933973,6.393672823486938,-1.1220458733228829,-1.6823934346592304,3.1525209141952475,-0.42233259477585305,0.15838876299743468,-0.4425638233857944,2.6748600148525497,-5.44441597168183,-10.72473681420692,-3.8860547894794313,-2.6332022362238248
DVN,-17.41801106741106,-11.533168379719225,14.669938587636626,18.148697705963805,0.9869468904003603,13.640860895556,5.19547385980669,0.8720796476696105,-6.843040369980816,-3.192348707227436,0.7175414074075671,-2.9343044109388248,-5.393482330908968,0.3138893329497212,-1.1989797139161427,0.6517309012323652,-1.0996070723834792,-2.82760678304171,1.2835163442438735,2.3179162161341065
DXCM,3.393500990444291,16.586525034337026,1.947993110999125,10.649613127188934,8.147305487413114,-5.851938327541295,2.800908564749798,3.4347360578331063,-2.793062373659234,2.946196449097548,-6.189549725996735,3.7283263886625204,5.262683501112139,-5.662001834818516,-3.4015931049346033,1.8253721060732093,3.546863631421714,-6.34284531669956,4.2358999027775495,-0.502941640764684
ED,34.936551578299046,-13.107538820115762,-2.830980950559776,0.7038792293915823,-5.4787919397732905,5.994229925432812,-7.853001384052867,1.5122900713551932,5.577861315205601,2.561661006393041,-5.157245648807603,5.704510656770747,0.49687089784024197,1.0866255572001673,-3.094228386429615,1.037883464034454,-0.5130580523614332,-1.1591934957157235,1.1221693537962785,0.05648741912482773
FANG,-17.34579499298884,-12.863427343815527,12.756682561744118,20.234258336589065,4.48114363871789,10.775015997038855,5.061518973365122,-0.664234023554624,-5.733172525950676,-2.566187321311483,0.8847166769453843,-1.064654191529443,-4.401015901702625,-2.194901880916875,-2.269739188605395,-1.4855305600590873,0.9713437955427273,-2.677116412652731,2.3123496377781185,2.6410667107330914
GLW,-6.60512638914173,1.2460901324256852,-0.29292859589768694,-7.412013817279615,-4.22076254841719,4.168322889722382,-3.8333690335245896,1.3364742896067892,7.1407372697749505,-1.1782065594681048,2.0654191459697704,0.4270346711546995,-2.5961490205170374,-2.9821773044055284,-1.2238062327353887,-1.8763420495199552,0.1247724737510447,-1.3131081834323952,-0.5013894612267964,-1.564462161088945
KO,16.5917297524898,-10.053195260914624,-0.5563066714267612,-4.8082999749489295,1.5934643852967765,-0.48697370574031534,-1.6658574291005321,-8.356822318664769,3.680203985342767,-9.603576216276958,0.022458853717663013,-6.246018175148276,-1.568490487212157,0.8473511637777065,0.46390902596791095,-0.6919511811204886,3.7179627842898366,-0.44132240609910406,0.7690191389290139,-3.3386248751698826
STZ,5.957696065263303,-4.464320925064642,-1.729781272163974,3.2156290104004452,2.395083982479179,-3.9808912019489404,1.619060747402222,-2.8209922939378713,1.5163270777631337,-5.596459286524048,-1.6987510608043717,-2.588779610303473,-3.2625152709852556,0.4423509113445261,-1.9702276384318806,2.4268865626822955,2.4077809773855043,-3.3556836082777344,-1.384692194768336,-5.680483243560924
DD,-10.195604735839108,-4.851199173499192,2.876308009608348,-3.7047131963290334,-6.516949348313155,4.283028132180214,1.555297260035581,1.990597851320265,3.9508587938430857,-3.043553177049788,-1.3983494264629208,-4.027517361821838,1.664975866784734,-0.03414273726469989,-1.8852591036254727,0.2889375129590328,-3.3578474594088483,2.3138595431710205,-2.253846662246864,-4.6845926260553075
DHI,-0.2698139970752482,5.201240891310461,-9.581856772585402,2.6972973723319,-9.680942957177948,-6.626130009320051,13.098540606471671,0.5127031858325396,-2.867538609306003,3.42046433854422,-0.12627222710979252,-1.077196070968344,-0.10854536126346172,15.095292221083898,-4.406560682969847,-10.331754131585203,7.96178054404152,-4.279219594025376,-3.8698883163150652,-4.248029269076888
DOV,-8.50395988011378,-4.8055811250127425,-2.1644382752206877,-9.08934236375824,-8.405201095440063,6.5537427364673695,7.997890855934537,-0.6281188255642974,1.2173672002721552,-2.457351810654056,0.2187832774961824,-0.27621538833767306,1.3457367287176243,-2.449363512495299,2.866686829801488,1.5900873281766892,-0.48657246886562816,3.230036411442943,2.0293931081541117,1.9805549745779474
DPZ,5.692497565801617,14.020645211479904,4.2281137031545475,7.052532699955789,-2.215750753184872,-7.905949924839075,2.00497881174332,-1.7050121507191462,-3.1720864605262897,8.623487849841236,-2.5430374181006403,2.9132394034325486,-0.8681903640761106,-5.777881792989554,3.52834731530391,-2.8831596562639032,-1.9409991691302593,-0.9331320158279355,-1.0534732239681008,1.0739927069584347
DTE,20.407669644077412,-18.28173647621573,-11.308110336098164,6.3814983088941135,0.38162718564096165,6.712939626942573,3.257046624903874,-2.3676035261886423,4.112181097047317,6.590316687870055,-5.646929354794426,-2.9568291523962755,-2.017844877585208,-1.3745456929632274,4.453022145082357,0.05761336081818235,0.30645169525276483,1.222684839802953,1.2939758606897294,0.24452318225800296
DUK,29.903388890234574,-15.465348292604876,-6.844788134366113,1.8815019425983237,-2.455638485831264,7.928283419255087,-2.596358248083832,-0.22199061244183702,5.260362805415263,4.4148434329566975,-6.228647002847441,1.4722552933062492,-1.0186734499568493,1.3865848391690494,1.1716692095788368,0.14395592932739476,-1.4576247784855594,0.7917394957722069,2.58309732327828,0.5194866969686427
EA,6.6729799750772525,16.304173201759962,7.167597114082111,6.528811647885805,3.2290758862130944,0.5067825415406773,-6.930058243572383,-2.296251894192372,-0.7214518687049108,1.1093833396011197,1.4506438992074955,0.4933213419216076,2.269142831726597,0.7500627312199641,8.648764316954505,-2.8782886166082595,1.3590570362820498,1.5076243004644474,-7.51531792718533,1.730100455619638
EBAY,0.7798755565609905,12.899815708770241,4.214916212296632,-0.9468770386810202,-3.4967241520538983,-3.9812388418450926,-3.124868270091173,3.60194062770576,-3.01775321206154,-1.3049138913366363,-3.394831080148538,-0.017883641898737396,1.3247453830666265,2.1082539972792413,-0.8080035154519942,-1.0279870972160539,-0.9894363669455924,2.363699109284739,1.2495839905729045,2.420068114006995
ECL,1.1049297561542968,-0.7260536612793788,-5.826051993721238,-8.5645955851395,0.6000486188122366,2.6674467412767213,4.380401060902997,-2.6506350324070245,0.07937385971528459,-6.792201413174898,-3.7480256177846,-4.462993482692879,-0.24023574261491473,1.0846101979272975,-0.025717681076349936,1.3900862361130644,-4.904607230214976,-3.3791285006393617,2.9756290360135025,-3.599003394998281
EFX,3.356223052664818,8.814561229313105,-6.966975357021593,-2.5675547209715823,-2.7679370256297555,-0.5952075004984938,1.5348528405167612,3.256983816698542,-5.240161298538012,-3.844858471070005,-1.12534524102194,1.898425055029788,0.8617606613458042,2.675267820374285,-0.14702990666698054,1.341110720606121,1.1502805297248075,-3.7175415755236063,0.12548241512538555,5.116825118583986
EG,0.6580961397076731,-12.298346552929067,3.3473983216620566,-5.667288858302273,8.60739273268135,-1.5760416567366897,-3.9574273994980187,-7.871110374148245,0.5514857501343509,6.075630831272898,2.1917452499262144,1.2092238811739398,9.887373267212395,-0.505125060064084,-9.406323219144474,-5.915234740295915,-5.7180572085504995,-5.0648879742788475,-6.823951963018766,-2.4459669493059866
EIX,18.233545750207302,-12.854531272852519,-5.50140573744533,6.417360754845401,-3.0816430755267383,5.508416334828003,-0.9331636863980192,-0.45261958030332616,5.069807031937653,5.5495527316661395,-6.12899372803827,2.9276047218926857,-0.21690931111926107,-0.1662818273428727,0.3729253951627018,-0.7998465637035584,0.06548666456091469,0.6395690859807978,-1.9464443396346962,-1.5947341638911188
EL,-0.4568267843728985,5.757197654856609,-3.590530739422419,0.8920796407399498,-3.6928649663896778,-2.643290543611556,-3.8306721186741095,-2.332118252799917,-0.3820599545185982,-6.656673971378279,-3.287444001302824,-3.6606445857638596,-2.960998596225771,-4.777986404179136,-6.122949396725849,-0.3695614466136532,3.241544247268866,4.827639442250865,0.46382990305974847,-8.901981908249319
ELV,6.228971583539774,-2.010867791646537,7.327760972250568,-0.5369685790079733,11.89466126771999,-5.244512585079344,8.635342851866506,5.729091676458133,12.328643912547175,4.319793555504343,4.539466474037763,3.8798904661744875,-7.3925010742355255,8.624378614324486,-2.604079001523356,15.699187019858151,1.8787385388484708,4.818405621920204,-7.903831058263947,-1.5199118938542686
EMN,-14.952133665833351,-7.423946749703527,1.3950590469333541,-3.766278562852034,-7.8638702207275575,3.418601562709973,2.338596712787592,3.3566323407885226,2.254410452604648,-2.6243570858366096,-1.3097282447171301,-4.957631425768134,0.020870769547844267,-1.1986847398334335,2.044021379928984,-1.387482326423112,-1.683544863934593,-0.25759077272007996,-6.972206934019716,-5.591081088408336
EMR,-14.045647197709005,-7.369668803007321,2.1524336759120253,-5.341757880192623,-4.11531707949212,8.477111878813576,7.950506679815235,-1.3962745071717393,3.0170543651440322,-2.9607697709502903,1.0333636033340687,-1.9056963279287447,0.5482654410512341,-3.0193564862110494,3.54825386375928,1.8223494888102947,-1.7118635851949249,0.5734545710085085,3.9204407705117092,-1.3412497880624366
ENPH,-2.606698791809323,10.389956705686298,1.8234688507988157,14.903776956593475,-5.026674327392352,-0.14826826500730905,0.9430739163995501,1.5629574453375075,-0.9409506593652142,5.781155114585837,-4.0992785307293556,5.321539018047339,7.17891962366724,-0.5341634810285659,-2.818276169087547,4.363082334635605,3.930593927159088,5.125382216823693,2.5221180795220146,-1.984288344335361
EOG,-14.40119710704217,-13.96307398837107,16.576030635336075,17.987367109888766,2.87956913761784,14.788549219021697,3.701587521268253,-0.11250308837379501,-7.008186781480734,-5.013237066020289,0.8302644482535344,0.15544172938370787,-5.1225079356223135,-0.9754718604367245,-3.064703553678113,-2.865753323436312,0.8667156753107041,-2.1061508763480017,-0.5777389073842041,0.9984557095769655
EPAM,-0.39192075245010577,16.24793538775501,-4.40912885763324,1.3152744067549136,1.2608721975678894,-1.9947257194796268,-5.930562585973031,2.194712305552028,-3.817637206675756,0.9453044734535312,-1.5046115094306056,-2.5572028079196043,0.7244352130344364,-0.0624924132391141,-2.538823858908646,0.675760213600836,-3.1339066190751463,1.0634113162132741,-2.274550113006878,-2.1575578087517258
EQIX,17.530184043015943,11.197250790284796,-7.260239523612539,2.098128405495541,-0.09118075744838626,4.530526506745251,-0.24104765636466274,6.206132464982821,-7.561875367759866,-2.111812944192503,3.456002791352137,-1.3995500552769655,1.160703714171884,6.738447549839991,-0.4666085822373442,3.5433367260629547,-1.18497051315349,-1.0238636257638045,0.6471017594071031,-4.256534839996883
EQR,12.716531406676827,-11.732293527508558,-16.904152031807982,3.5162157947250976,2.8436681962489296,-1.4186620308132174,-4.518878792021108,8.00125920384635,-4.988692430507483,-4.653466035358445,15.65389070329642,2.2487484143470344,-0.5757008335008373,-5.284447633152755,-0.19340595815469136,1.824898645127583,-1.1547328399300236,-0.28591696902568214,-0.2893152887262808,-0.14772279404294603
EQT,-3.8454271131280486,-4.471806932935615,16.701766593652277,12.815853358853326,-6.964266845689992,5.1885391256656614,-3.233288363261011,6.10760769837018,-5.3430312771618595,0.2902211532433785,-0.36856948156581437,3.539431747080088,-0.24904271403595818,4.191537667522755,-6.692439852321519,6.999019827762856,-3.6721904187117134,-1.9314859283237282,1.9943417499985756,3.0722722889019587
ERIE,9.803068973710536,1.9768101493915964,8.950043055554502,-6.259847902711587,2.4189392930043767,-1.4734898976654283,-4.002204564091452,-3.2915836328221566,-6.243070397662233,5.160505612526131,2.4363462057276126,5.301472389429949,11.978263894364327,-2.9197708986238644,-10.218774243207045,-3.903376071163937,-4.013895517450897,0.2968398116731022,-5.918312884154371,-2.0020160359568044
ES,31.913390079898573,-10.036815516262493,-5.847453035903672,0.3954018072981006,-4.718881665133212,7.796814945560631,-3.912613894552968,3.3446721604176974,3.3216082088639793,3.5451177321991416,-8.734381398423428,3.2333246324760347,-1.7764531089817373,0.018693215483363078,-1.7936027065895135,0.257678827740677,0.5859287525437489,0.5670631340162339,1.847349190532854,0.4022152647547294
ESS,11.923097880702272,-10.534008331293775,-17.896124349315482,4.846546603382143,2.795941970117738,-1.5721519618401048,-2.1420953885948384,8.610985302983261,-5.013889739164043,-3.3401663152405807,14.929866170653588,1.1566601774513874,-0.46394641934906866,-4.247389579398381,0.887169328667798,2.692143602598037,-1.3918921476019652,1.4526830663130426,-0.3280696329096285,-0.023892211376846464
ETN,-11.890514841085952,-2.6549353553388624,-0.5150349156999544,-11.068087892232162,-6.327649341382447,6.888516353638887,7.967111872041632,-1.7919052805569267,4.698796691839574,-2.4924486937295556,2.3140555923903765,0.9752707773181453,2.950019403432489,1.701842035403302,2.812274252638341,2.764292462371176,-4.267192635229066,-2.5983723040115354,6.338448785974918,-4.4961861228365
ETR,25.16442400470049,-14.348227757545205,-8.86767157006986,4.728439215589296,-0.8769512246386576,7.943921675143879,-0.9994564776813468,-1.4194274981153647,4.994244961673992,6.851893673152024,-6.533584236017556,1.812595196610237,-1.4717178217888747,-0.08033053313226761,1.6827411847041076,0.879226504970318,-2.3351490444724,0.9018598346166242,-0.6590586100618385,1.5729578452477342
EVRG,24.804723204247427,-12.579241491659804,-6.394647824767008,0.2864494673598958,-1.878344635484527,7.100807249410825,-4.1711709113208055,1.5674735449664394,4.107457072540106,5.22132326569978,-5.671610393097129,5.496171713164169,-4.377706183034786,-0.46221822624116643,0.3069740473467239,-1.1255490236251307,1.9528199926506702,-3.391887421548711,2.22727496083494,0.45741710517963974
EW,3.94014794941262,11.481853709593924,-1.5339839447859702,3.155380100386629,9.236956663292393,-1.6591413402355666,2.014131443920568,5.805854820106413,4.2455013167384825,-4.876159787987581,-3.6406742724220407,-0.9065756561607506,2.233457978520296,-5.981807497821651,-4.489718401035675,-1.446232660434443,0.3387188609444912,-7.639521175583861,4.924764651710952,0.21818939680564642
EXC,20.499899418742896,-11.767913058946615,-6.794874322309801,3.130971363189974,-1.4336092574347408,9.793426097787092,-1.5365488724409149,-1.7406764495182263,5.763139668656057,6.9042909799528545,-6.55662082021925,1.107764692873052,-1.9498473723312122,-0.3513049637565919,-0.3516967606730379,1.0005799447246062,-2.023657258560225,1.570500404410611,-0.3314192540447833,1.271401868844073
EXPD,-1.169805986260811,6.382989333455403,2.7443224591244135,-7.627207113754284,-10.590441096258369,1.4502927642852645,3.4483869659919226,-0.6508911431795822,-0.9246903008703466,-2.7292497659544868,-0.5668872568253216,2.416462942071452,-3.797009564589558,-3.105369552864359,-0.703905231890556,0.5017464838265611,-1.5213996217152765,4.224781791735734,-3.616984610177102,3.3503592489265066
EXPE,-10.46979558758413,-1.4515374533661733,-10.139857047103083,9.27427729659742,3.7520677552775927,-8.694142339460258,-5.548258755893214,-3.2690326737021365,4.884075582632832,-7.090372715514318,-5.305167192750381,1.265564218575015,3.3039319584443176,-0.24256382656121497,-0.13126075427870337,1.0147793150805415,-1.768428804531066,2.4303060256231155,2.602105614212888,0.3247449026685987
EXR,18.980114505298406,-1.2543633150489024,-11.706306531525511,4.103066268097037,-5.286414034158238,-0.7136510488707815,0.4150145450503857,8.39297833326338,-11.376544482270413,-2.5486500301916837,11.971630297982564,4.298303995535988,1.8281755849206733,-1.3068707678768414,-1.149271658687931,-0.8864259403742452,1.6858545598757702,2.724922994032427,-2.3515599601425117,-2.0830256272288104
F,-11.670412335984876,-5.69033822681777,-3.476274780727183,1.8809478070997725,-8.524481261021878,-3.8124221388270216,-1.4854316934829965,1.980080005504701,-0.5363120938299176,-1.7752504572246226,-2.958814577038179,-0.7388768882887571,0.3032667042149258,4.577179680057476,-5.33670534992723,1.5038905507742968,-1.7090831140536258,2.8931544711849018,2.6135709821952426,0.4003973907970803
FAST,-0.43976726516607295,5.753124461000469,4.654910064223532,-11.434029043356166,-9.20650924325319,4.014097737209632,3.770212751753409,-1.9648950145973416,-1.882498924395743,-1.5883485716431576,1.912764047658141,7.795952705478647,-0.9683866346152405,-2.3294221229839622,4.765613235795306,2.08586849528214,-5.7754566366215725,0.9904669392168344,3.626579398052134,5.694702898222051
FDS,5.087011739706838,7.799428912203283,-0.4614362286148894,-7.505066361412754,5.047187781617918,2.3176683723957785,5.698562550925682,-2.281186400189426,-6.689170389363541,4.097011618752429,0.03608765393479088,-0.9987049414685867,0.22220229211050765,-0.3545807242783497,1.7276303989849602,3.518111728726302,-1.0508033485615031,0.7094593162192642,0.6184329773979731,3.4421595974288666
FDX,-8.189992821325802,2.0820030336885735,2.199793640753023,-1.9056720666389468,-7.608298672080804,-2.2373966239935896,-1.1170357684250414,0.14812828107685694,0.7109561355400451,0.9322126145479647,-1.7681640464256665,-0.2053642491588782,-4.593121297615437,-3.645805806063342,4.239944637380576,-2.35984752408962,-1.8126597125563184,4.413921640732986,-9.445330681904146,-4.130861483384802
FE,21.607742588439255,-8.79381643343125,-3.2215164786509245,4.225560850417454,-1.427709481456649,7.825315351236823,-4.547591017879681,0.1484553508699878,3.095969441167937,6.815581508172297,-4.547378657783222,2.1109450399743284,0.791355777567055,-1.1455949284159839,2.1806240055949626,0.6590579805165677,-2.3529541876230073,1.6235800566206557,-2.5403657229945287,-0.08533802633032515
FFIV,-6.501385826266543,10.354915286995373,-0.21760688921256316,1.5434531914886358,-1.3278405940928946,0.9263568149398,-1.8075650278482431,-0.5476844473835869,0.288545019294443,1.4983952624450332,1.826845037733194,0.06161817661028618,-0.6646561726235323,-4.7918122141980355,4.290369722999379,-0.8207972541586396,0.8323039225725078,-4.364196506224822,-2.6154536146308844,1.6316144427215262
FI,0.9786594965329269,2.1228897322002207,-6.627590352655319,-4.085637280000189,10.821652944247463,1.6671219735739269,0.11810428594020458,-4.212034719184802,-1.1428063206329175,-3.8440901188450636,-0.5056369702736575,-2.6389626722067483,-4.207344317149274,-1.2868677566356812,1.6318941168276428,0.5776912273785704,2.117087314341783,-1.749823886186094,-1.1908717487389129,5.407115527524438
FICO,-0.5645306438602359,12.864633364096017,-7.389606243902157,1.7682027088340115,6.977483953074743,2.3258795936846166,4.86482998764079,-4.97475917450093,-5.114163335364787,1.7946235754918138,0.6038176224852322,-0.7418017988781602,0.31724079350425743,0.9489371636757327,3.318678468617717,-0.48674383111060343,0.40104192038944253,-3.144588896957015,0.030050232022110355,2.757859875895813
FIS,0.6125504568945487,2.5988574056522133,-4.48897948410694,-1.589866359198102,7.981126426574884,-0.9665729822966582,-3.3327046590865597,-1.4601779465344704,-4.083031257821636,-4.00626908255661,-3.8623807436217343,-4.604438762211229,-4.422659447805216,0.4393142828934659,2.0207343474716373,-1.0007616825812853,1.922471157020797,-0.2238215186372945,-4.876740398794908,5.897461223989508
FITB,-17.515065169442433,-14.71569759670771,-1.4597395249006788,-7.361022135791773,3.033287244834473,-4.468853395367087,-5.410392583313132,4.843327071169688,-6.775837252447897,9.882553153521771,-2.928524020614632,-4.32322123889209,-1.3226517881725677,-2.2479137287091793,1.9396875694648135,0.6516669118803706,4.462308602118575,0.2713164414387877,2.522768541570954,1.3281414410071302
FRT,1.6558415434685887,-17.923679329128657,-16.51104555440358,8.272666238283783,1.2242355245391467,-5.535637776481118,-2.4727506674754127,2.24743617373632,-1.6898195713603668,-5.393031961179209,9.882394513119586,-0.06604862629191431,-1.723349978724115,-5.392722410282307,-2.766739048657883,0.8812962378130115,-3.5049278924174954,-1.0914850226710817,2.1401281197582636,3.752278645934503
FSLR,-3.8005554954570453,8.411001498850217,2.7994245717962567,12.183173152443887,-6.0576841851598955,1.9071697582776983,-0.45245369192376633,2.5967159502912245,-0.03576686248641358,6.781807276937052,-1.4809370478449486,3.4840592433301945,6.569620236633424,-2.811743480916382,-1.583451317390844,1.8096755260869124,2.3621804644636897,0.6901982883319596,1.2859207985210963,-6.548949095683808
FTNT,-1.45744786478077,18.395271866137666,1.0762655415457436,6.411566581734744,6.10494330998612,2.4194300740098895,-0.7376082204626261,-4.68496369271823,-5.701115827365962,1.7860192434355888,-2.522510363061817,3.3590641621492336,1.0306858409428237,-2.1890955434722805,2.6599636639503044,3.8630535975971725,-0.47240553720820755,-4.316903282530301,1.5223005195670254,0.6965855058955747
XOM,-10.333832705885504,-17.432180114785627,13.648494890897801,10.92329050164993,2.6432358050281364,13.301897690247735,2.204381977955685,-1.2328317562209394,-2.0568238969454296,-4.618135928340339,0.5037285398943604,-1.6757729979067613,-7.1180060794238456,-1.835221576327314,-4.341977784117781,-3.526420551370729,2.4457898374063265,0.23698359742746342,-0.02969871871110234,1.0863525206420175
BEN,-8.641015266372637,-4.580056579081254,2.218661369770019,-8.845027149898225,-8.576815995471364,0.2144285682119615,-7.358121450067812,6.336859332497763,-3.8229639876932473,-1.7303330670090666,-2.0558795168419977,-1.1625500769612849,-1.3021043260765164,1.1800528744074414,-0.36783834630173334,0.3187245951880833,0.10483531250374328,-3.494367076219797,4.16626381036954,-2.404015386359553
DOC,12.211076513635673,-11.270384253572027,-16.410584661823947,9.134365175419935,-1.7281751828273921,-1.024489568159488,-2.1580931843379463,7.316133842443922,-5.68154797051118,-1.3710891681534445,10.594317713995784,-2.100319328697652,1.6083893941369551,1.0016915520597816,0.1942768062769076,-2.2179399965807205,-2.1895672018279635,3.797510681948867,-2.9338986362751753,-1.0727345104914565
FCX,-14.059466389208946,-1.3924879884920214,8.268595366740298,7.590730062172334,-7.0710117921652165,8.46094522648311,4.594322953412146,3.4382324199652508,1.112460500950409,-2.092545299115842,-3.3735776634838683,-3.096777574434297,2.923735876460519,-0.9832077764547623,-0.7799192888549479,1.2896900714538024,-5.113479831669749,5.25186994206033,-1.4266631287366345,-1.5527215006794348
GD,-1.3434997978852197,-10.377628798388546,4.704956348903472,-7.775806577995255,3.376919795726007,3.0166492797137834,4.2688774671618,-4.673308525100647,2.924017078077414,-3.177135946246573,4.068533423199322,11.267412902198613,5.885762934781243,-0.4091225392453799,5.093180916938586,-3.5904963615727623,8.61244222145751,1.8463944026435721,-1.6458753311987615,1.3719445924034595
GE,-10.209655943011194,-7.889550126457216,1.037080542861086,1.135524048438241,-1.538035589754915,-0.38501441077219345,-2.660872496452128,-1.0161525670064322,4.282691429687789,-2.854488664082698,0.5426144273107097,4.696379235417226,3.6414825806459232,3.2746484029070433,-1.2073237845223483,-2.4891354912918087,-2.649373510974696,-0.2846068771623224,0.13601447746210144,-3.9277944844686736
GEN,1.969618664716295,9.527643569829888,7.675418328241078,5.240303111802412,-0.5735114704503647,-1.1394743015346314,-2.677818808923147,1.9330397669076418,-2.6775993052454146,1.09745511674351,-2.577949404106656,1.8439114882479781,4.27667219896122,1.8279822195569337,7.958409448212892,1.9576238971902369,1.237111651834859,-0.20256847652748505,-5.269915398393029,1.6804205118360107
GILD,8.573456122007103,5.408741717011442,16.671624310379908,-1.3248390114245494,2.69131052046774,-6.291892615237485,-4.180286154728259,7.999777315937964,2.808245134553143,-0.2805376976175688,3.5214423196491635,-0.21467098568190596,0.14998994075942454,1.43658045971021,6.211675146531909,-11.735045061011837,-2.5292068755339376,1.367422134163152,8.20738668264901,1.0073672970672978
GIS,26.81419636287187,-3.595590783496567,17.538478584177962,-0.29142897134528706,-6.53875349191594,-7.725789076723293,-3.477745525398856,-7.998970431804486,-3.725839061479351,-5.146868801906811,2.0304447056172044,-9.903453571186764,6.358732130065276,2.012930510796878,-3.539359401147047,8.171033322314273,5.19903042170261,-0.9114342297399435,1.6100119857283552,0.8212487521146103
GL,-4.356416590917072,-11.606932422825185,4.161099201537306,-7.707881967016301,4.5546482870375,-2.422739577891398,-4.1357593779149955,-1.1206430723051928,-1.412394170830669,3.6044879085470667,-1.1807815418845324,3.0220974079158163,3.616570356477031,2.081738843901677,-2.600341090302038,-1.203342409714345,-0.18004084866184866,-3.1872493319344497,-1.4462925312214667,-1.0959234245002565
GM,-14.730423562616272,-5.005885010536922,-3.9833433823795956,1.895567469829802,-5.1999252280604,-4.806481361975538,-0.8722502775927012,0.6260527097262026,1.3314400236838912,0.9202786988407372,-3.1462895764177903,-3.4870412080829283,-0.217055837296011,3.6670281202139847,-3.5661638389233596,-0.5768690706791262,-0.9074164376598857,4.853697112110655,1.2344535820945386,1.1888205811770527
GNRC,-4.518567718085765,11.062760197021062,-2.7472900366481237,0.8148894882374343,-8.971044277838942,0.7481898467707191,2.068270568071456,4.99848767510759,-5.303049490267262,3.698710264525579,-2.9639427451712397,3.7004102117814157,3.3817293096609835,-0.06060358131730445,-1.0834486229494549,0.8116254047160177,1.6747946151540931,0.6348822939401202,0.48201569043620707,0.7802547587033167
GPC,-2.190639670745503,-7.32521512564575,-1.6587349273444207,-7.518409015926889,-7.221667622840003,-4.417270555021936,7.643222488005431,-4.587060561355567,2.8400747814815572,-1.3284738890547245,1.1209028620988495,4.942960194612555,-5.509618856396409,0.26993884502739757,-6.4712134924742175,4.518808163688132,-0.4030487523802824,-0.6986205151878292,4.089276750803112,6.708599375563251
GPN,-3.8639818616676025,3.3971694285504603,-6.325251772024945,-2.4374724372250545,8.283183188506337,0.8487669825486929,-2.7166293603992986,-0.539988260657165,-1.4476771816943281,-6.332386293140242,-3.794648448317441,-0.37535106835322724,-4.881287146113565,1.8958672981371025,0.6225205595858527,0.16997359828895164,4.0594993577790675,-2.689919555297945,-1.1514208208120629,5.4755915801879596
GRMN,-1.650265692996668,5.4952228153299885,-0.17247054436159837,-3.24952572772551,-3.8846262460372967,1.9879539889974174,1.6989873243041869,1.5375521450368224,-1.0541526747499497,-0.6010061399200285,-1.5234949515287526,0.7627394674005608,2.0244235707765172,1.7066701687641368,-1.7021008007256724,-2.7018232856485658,-1.9396671547949687,-0.3626977294691125,0.5127690237017507,-0.42495000811458716
GS,-15.584931979915366,-6.800400305025868,2.1551299758326565,-9.30114861111022,2.105310638901537,-0.2957013074808908,-5.31003280176732,2.0790234540572516,-4.840016400292144,5.743369276350074,-1.6222021585117985,-3.304012622107577,-1.9961660682177684,1.7111314264382305,4.565087449987502,3.1814935858366282,0.21711607391764154,2.181964929575399,2.9839091832821376,-0.43624335579190365
HAL,-16.53509721660815,-14.649685662943337,12.48782713398257,13.989933539066614,1.4482073488946297,13.623991532273926,4.132529296617721,-1.4873635469514477,-3.350767111037992,-2.786441043727978,-0.012132641195169191,-1.4775020561977508,-3.1856591293715435,0.4004937637332485,-4.272971540422872,-0.8140926617349254,0.5789272405928729,1.2118260263257452,-0.9748692564357535,3.455056523621136
HAS,-2.376564064560943,1.1285413346035067,-1.987662519028049,2.8651343725105134,-5.036090914743764,-5.706518187959759,-0.5830300573788783,-1.1374373361125347,0.0724247809661956,-1.6217475031043513,-6.0931365038042316,1.3035324292936548,-1.5986045656078285,-1.353613282112918,-0.09873767949118532,-5.695995364572377,1.6467039479510652,0.25760762411427607,-4.361925422727044,1.6527815761880986
HBAN,-18.127010078091484,-15.281578784845387,1.9913437705966732,-8.886601453463532,1.7773412657207905,-5.4209567370903295,-9.955476460650317,6.467731949981638,-5.669502474648593,6.743905673852286,-2.096891133946878,-0.1910676800677082,1.2418679346378922,-2.976479066065102,0.55497018763265,1.9820653638910866,3.5911942990105836,-1.3563790496896877,2.2476758208898997,0.12253795593444111
HCA,-2.8551520275935482,-3.498922466039097,-3.207612792479526,6.763979404803576,5.629728557676011,-7.083346256289449,12.023235365062886,3.6656071802156007,8.666212291593816,3.4298530720889286,0.27043145203956914,-3.9153950257950134,-3.569879982826907,-3.1641741773401377,3.5132889252654755,0.623490597245992,-0.3744958287277897,-9.124827598804604,-2.990347799322201,-0.8742946725457905
HD,2.22182513345309,6.205091478797425,-5.869624786801647,-5.585822304090521,-6.643565156929748,-5.247518414623494,8.779430002870253,-2.9282067279796977,-4.05100481954864,4.492221020511421,1.364107286850583,-0.600391039792091,-11.758537372502023,2.436602571227391,-0.137982939934228,-5.6450104242888814,0.06036419355489502,3.294940419861498,-0.34584895237248664,2.779193482989558
HES,-14.487234115787107,-12.598191167846348,15.211228695022639,14.406310145295837,1.9174146515825352,14.156301257041855,3.6738721698267174,0.7504973387608325,-6.795903615260662,-6.591154962035621,-0.8546742797756779,-0.23900142229027171,-5.022434476170652,0.4742730473077736,-5.179652667298568,-1.931351681991127,0.26563996470343815,-2.9408749766949493,0.4878056594771853,1.1733472843550494
HIG,-8.162765423560401,-15.452859590428039,-2.0146023432915245,-3.2467849213395854,8.255756063662988,-5.566671913432938,3.4886717732645387,-6.686268910223747,-2.009699612205059,11.008148145861897,1.580881925647679,-5.834304753060089,5.19942504329945,-3.7113550469255507,2.7544208037205684,-3.8005171151476396,-3.8643893561526568,-3.874008645425223,-3.859940012132539,1.9299211565802878
HII,-0.7976862959759813,-6.746661121437669,9.75364350995741,-3.631940440650791,-0.5442660079872428,-0.5533977261418931,3.3384070429483823,-1.3490598387103687,1.4677405331073756,-3.103044534175578,4.714174555504683,13.937126070314804,5.366399861215363,-1.5701819775463624,3.8059653051239306,-6.0602546985928525,13.856404956121143,0.2707216781108143,-1.704214493301606,0.6364048459136876
HLT,-15.51251395319296,-0.6672433673065622,-8.050664215546579,5.236738096344165,4.538637428975842,-7.398948729523817,-1.0141635217284544,-4.753850579400589,6.0866338824010615,-5.900289391631072,-3.0433020660827257,4.005432424861152,3.661923256486951,0.30623889119338477,-1.0169578411606843,2.738479056560952,-4.287645714178442,4.663246264295808,0.11634139472777763,1.5013063323102376
HOLX,5.332994926706295,10.645936446565404,1.8501192012269114,1.9971327451659224,7.563461672875775,-3.3612209173767513,9.130614068405697,10.193620603797987,3.2902918356721025,6.772190354548485,-4.31933021845668,-6.7973684440184705,0.5609699069695915,-2.714035037946365,0.9624137392456809,-2.724694031190291,0.966579529688705,-1.5515048391112258,-0.9784615666714547,2.1776983571769035
HON,-6.419809630380396,-6.770723042465306,-3.1791698494155254,-9.043555193423781,0.7770821435155633,3.0256929779563198,3.917558283317,-3.8875318687690106,5.038097102938642,-7.006334776491968,0.21188734210270332,1.476622949415962,1.1554354998924088,0.7259265851514239,3.359248613573519,0.38148727449742037,1.1630730256794217,2.306120719018991,3.4397402385115576,-0.6094153028193782
HPQ,-9.219698644275345,2.2610031277086944,0.26534311910762115,1.3498513838294843,-4.215639883239514,2.2769014117791757,-0.030600969119157693,-1.5874351045299113,4.697003158070042,3.2935027290734644,3.8427992567076776,-2.9418641037606506,-2.0833485178939366,0.14313063465573783,0.16769589425443007,-5.241193083754023,-1.3887111253796482,-3.506972858768363,-2.6331436862627084,1.4698578595549956
HRL,22.598148514941403,-1.1648052531064876,14.179035109077404,1.6536233833929128,-7.781284697515763,-7.692761655301932,-3.554176245363794,-6.031990561174229,-4.066132295625552,-5.507211805534813,0.4386267635297072,-6.700169174997956,2.7938777297656863,-3.4380633694154747,-0.9688085452564165,5.5418162915224976,6.296359244189532,-2.4369268297196487,-1.235713546684179,3.0153379262940927
HSIC,1.6676854974585598,-4.544067076717783,3.6571559955736763,-0.9293249250921891,1.5445459792101883,-5.94112760794641,0.8881291366936146,6.05111558547194,9.594979753340962,-4.015433844297948,0.981477230223996,-0.34970461379009726,-1.8783789785277816,-2.6277798588875005,-1.3320889024417455,1.441187041827294,-0.6637050139536776,-7.179768190629285,-0.5725926858482925,3.692550668739573
HST,-12.310091327344924,-10.842337605871709,-8.987629752320002,7.5909722397443575,0.8964869466456854,-5.366483988671478,-5.858241578132993,0.5432429499454029,1.5488203464052372,-5.303167521511815,3.6075731694650823,2.956695155036097,0.83742931823354,-5.054953726937688,0.13072678533880722,1.581879308595647,-2.471336206711363,0.8834667662727804,0.05850098466525994,-1.223031997134188
HSY,21.057888738421337,-5.301013016112092,6.058790236076544,2.3531159490332043,0.4964443457649436,-3.6035860309364036,4.429317060497528,-11.655443333665293,-0.8157099990326913,-0.3871479283427946,2.9968202970862983,-10.5161659554357,3.0167836227344846,-2.4901154779913566,-0.9230582261983771,5.860710983155677,6.896102382799517,2.600397944023136,1.6730758396010892,2.3656839628686117
HUBB,-8.872255865876005,-2.204009294671126,-0.21251898133665473,-7.599721996408081,-6.3387887549976885,3.5865128656420824,8.527522576097606,-2.906339998166347,3.0991641890580515,-1.5306819903042177,3.212727686542719,1.8391657410788664,4.899809080835555,1.2980347767545881,3.227509888970625,4.412906405854213,-1.6712557839475115,-3.472522005351662,5.557670992883826,-2.5863901830112868
HUM,6.642108984128599,0.6508962801925825,8.916297796466605,2.386514518757089,10.44091063559958,-7.634096518208624,9.447704873402337,5.610716768423829,9.340410631657608,6.706246365372742,2.583487992973446,5.112870796405186,-6.115734977789673,7.018626440617865,1.3194536326705173,14.848608469429427,2.8772743083063705,3.2593752572528243,-7.390462386530658,-2.409139775425852
IBM,-0.27850244390437395,-4.920408456462522,4.7333319920091474,-5.435183653314468,-0.9595429560464873,3.19738357133995,-4.154786292764855,-2.581543462244509,4.6118451128559546,-3.16245660361375,2.544158235032945,-0.1630745133495206,-4.048214214536591,1.8924976275030931,2.3737523697373564,-4.972526581406524,-1.6717743292309402,-1.9504829306666749,-0.0419449589357393,3.035446906055384
IDXX,4.957731053787513,20.76447677115966,-4.146651983020278,0.7875806472642365,3.9114125823556463,-0.19356026313906108,4.025953107816167,5.6187486502146085,0.21422743195422356,-2.021802541325104,-3.914673739096784,-0.5783807460546958,1.3199300512351082,-0.5483213234588213,-3.2822647242278036,-0.7249824607511149,1.3984650731461887,1.0876620418060656,1.6147363436358833,4.497563466688744
IEX,-4.986203803275591,0.7067946842910702,0.2896949865211954,-10.996782912513165,-5.26522619161384,4.422736191581765,9.09400728902266,0.1269216902668588,0.6150579305367199,-2.301187387811283,2.647009011410445,-0.4938575775983246,3.65025181048388,-8.263633426372328,5.9949421844578215,0.7520421042339566,-0.435152443103757,2.0420793646859536,0.1845270812857062,0.9000421989947223
INCY,2.9626383632375557,11.763276961796674,12.528853720796707,6.862127465589705,7.517123160342142,-6.294005934772536,-0.06482775577420948,10.354143546007187,2.2325969850679255,1.0227501082069574,2.190672679283725,1.256690496117911,5.066998328178989,5.489613808772538,4.68022803033772,-5.034091008572228,-0.8383070650546018,4.868115064812071,10.793167260489202,3.42260329476246
INTC,-4.12251034691128,11.981974127582076,1.9871594944835467,1.1946494610377312,-4.164864864251695,6.11043231889406,-11.159818889477663,-3.353531052726339,7.30453644542676,3.8303680466525747,5.300578506508163,-2.0783158781216637,-3.041882338739362,-0.2452347702292647,-0.34577863056062497,-5.901537323126135,-0.17097911937622803,2.454432238612368,-1.9606429293201344,3.9275905356349083
IT,-4.339312444305554,5.153056161680028,-6.243601635106327,-1.6487432100851365,5.42930271881002,-0.6210754343844209,3.604238210108226,-2.659859044196921,-1.7528807252433143,1.6250747751810235,0.9307934177508356,2.5779539086660797,-1.1569775985380053,-6.1919114510172655,2.1368144183792204,0.6471354920587726,-2.231025792773518,-5.724088026290351,0.6263289913896701,3.0709949668860825
ITW,-4.74184511948195,-3.2730401757218006,0.545710428375981,-14.641010539942247,-9.08872438841105,4.1653589206503225,5.426468565283334,-1.121126024532921,4.351070548222807,-6.776755042175241,0.4948127084778649,-1.0602081357129665,-0.3218872122467545,1.0306457596967868,2.370156917744469,2.193466224269814,-0.703811448138695,4.289677182703224,2.089551453188521,2.0786201977493692
PODD,2.027614622698916,15.951272394586255,0.4907543405545007,9.679201669974995,6.1234992195543505,-4.221169828886636,4.271043111975078,6.05674282754618,-2.12072236708952,1.9893764930482951,-5.016314778805531,1.8318088128345194,6.760287511160441,-4.821569424652644,-2.898839840046208,-1.4834407692718075,5.221995743177146,-4.804699172143414,3.9533992077345954,-2.128802610412308
ICE,5.570113140852227,4.6072363791202555,-1.4479460157673245,-6.130146672484525,8.657723803260229,2.316670279073983,3.5884936691392837,-2.8245752736081506,-11.44524407721873,4.017107786520074,-0.2898706058067735,-2.3733184605765483,0.8931869859371627,0.2665233426533697,-1.9016170088087998,0.027023523634606667,1.697815528065061,5.959847027933578,2.5328688949769442,-4.435251687386684
IFF,1.772894843988503,-0.16515958397273595,-0.9663174718726671,-0.7001300700756775,-5.747434956442693,-1.390896458069176,-2.298202251578593,2.969368700861735,1.5450137435010203,-5.010188818042619,-2.2258993500413142,-4.550143053657206,2.5303621162262533,-1.6942259890599736,-1.708359418916083,-2.0530340477630094,0.46499714281252086,-2.384629883021702,-4.23613441229088,-8.062291281920723
INTU,0.5611715400838156,18.889635736885733,-7.694976176770675,-2.860718165479164,6.626217572119244,5.626689983397655,-4.204707735497797,-3.285574250358099,-3.9058613558004387,-2.6977139853403913,-2.62114610415605,2.35727070510697,-5.1304085953054885,0.7813839066027203,-1.6807385686177574,1.5005604867263054,-1.1159671531136814,0.5338447538786716,1.6931849155358363,2.0866192741999976
IP,-5.108528126885013,-8.928240864740165,4.218611113671082,-5.8810468482326055,-8.718090350014812,0.033334519019319116,-2.4309306338739023,4.81671981433403,2.113084830277632,-1.1106842956846883,-0.8339720210463447,-1.8843600622515728,1.5486021053152916,-1.9570627917962462,1.285774768214238,-0.1094988479066604,-4.513321110584661,0.7089012150072728,-7.8795042605607835,-5.624145605297652
IPG,-7.984943967490654,-6.909399982993433,-2.682313899565876,-2.0909917286788944,-2.539625447774352,-5.833880320985831,-5.333653460803393,-0.12017385627080913,3.999696297812949,-5.376384769788103,-1.9849293061476865,2.0537841865861823,-3.4039210447613404,0.9863669283397993,-0.6804120210439193,-0.6771654629226047,-1.3844604651850727,-5.4584999731109916,-2.30304734418473,5.091577043174685
IQV,-0.7128407625178501,9.728407279520848,-6.601093306158814,-2.43875797772238,7.433970562993845,0.7728005914811586,7.224532757169572,8.473326454111001,2.5573634505203517,-0.6958406109244577,-2.3516691295092222,-3.1735910070915514,0.18290548197557402,-1.7173289652387649,-4.452844830313269,1.3883281942178958,0.9531880214108432,3.6362070282382306,2.7015336357121433,3.449544136638096
IRM,9.750340993216065,-5.104511528151276,-7.3366116748267505,5.0027096931630854,-8.17565941833491,0.7236729023026842,-1.8625841177088112,3.3168989357515417,-5.3097265392292785,-5.186657458893201,8.93897209397525,1.6110679010923203,2.1423949494811008,3.524137742190488,-1.022311901969701,-0.13224935611664598,-4.481152599939558,-4.193267985549041,-1.5311041444169573,0.0013366150257297796
ISRG,0.9958837701225505,14.695165536460406,-5.265056600270711,0.7826131061655167,9.732599582512238,3.522336175097311,2.025232362478855,3.2464109259213907,5.392336632720061,-5.075409637655347,-2.922041084889372,-0.8052932472990889,0.7787702280788953,-3.0164078796598184,-3.4766709228232617,-0.04367078325000066,0.5902656827631092,-7.424558933990248,1.2573158273455698,-2.8685458756129694
IVZ,-10.657033974460875,-6.21293099295264,-2.0365098072439376,-8.104481769277731,-5.6788791335288735,0.7238904151678639,-7.846857891909611,6.10510820604552,-2.541474367860815,2.163129160913026,-2.210444166147143,-1.5155075971474958,-2.632550227800908,2.414053340498881,-0.960451467672357,-0.7421359327561956,2.1643606630440964,-1.394704446096014,1.8706468603348592,-2.591535001634589
J,-5.869870477984772,-2.122626833113585,4.547182586417966,-8.598928469417105,-5.706326502065437,3.9386131273712444,3.714204936329544,0.24140232141706947,-1.3869030193992016,-4.804002538600302,1.5224769459622216,8.26869962223939,2.1364321363634162,-0.22965748375604794,2.060134944344636,-0.023756128890165748,0.054875818645501576,-2.0323879751191205,3.4421670421832484,-0.948827471022842
JBHT,-4.061892101517678,1.5528750552693622,2.339990080044651,-6.698266778900444,-9.101144959485088,-0.6627715533287759,3.9762800497951294,2.0886651549217694,-0.9394229001683094,-0.05761692216799598,-0.16608166431292817,6.845230660025545,-3.2562369376617974,-4.556613289102178,0.16031077263176854,3.509100611359985,1.2681869903491274,4.905889595750571,-5.975286481739345,1.2972589225341011
JBL,-12.537110311774557,4.394618514934308,-2.83195753621839,1.8702260219025786,-4.571389014376575,1.4990851758268278,-1.6831516242920854,-3.332330868250783,7.4366829270796995,3.092533536362686,3.7462763104932497,-2.1172030757714073,0.3177982262432138,0.686677675625327,-0.7273723373640685,1.2562917171176236,2.2018976520846447,-2.9584174439813107,1.265293659019855,-0.6218714229379563
JCI,-7.660972519786623,-2.7679293975508124,-2.8635916932063274,-5.739675011436606,-6.117304546235837,0.5181379595370078,4.074701278619534,-0.23751527516583848,2.0626882170454723,-1.1292714297858093,0.4184968516822334,0.5724255284849092,6.523677860599887,0.7228264306324577,1.563475428929154,1.7036347722515666,-4.95336749743131,-0.4698107441832396,5.435993793053488,-1.4965502445065404
JKHY,9.305822448673581,7.5181153584672025,3.3813261644755,-5.283179953258111,4.54135975612948,1.8990315337483916,0.1289534931622855,0.7750450953033245,-3.9614720906029905,-6.488522008280712,-1.0869358989140576,1.6706676144445407,-4.33839602413516,0.3698695452878683,-1.229282022051046,-0.26083098356303264,3.825869831340783,-3.799279463923625,-2.1762700325226705,7.911012080042858
JNJ,16.8644005325033,-1.9625218095677677,12.200310225143447,-8.44174840809544,5.934334681698809,-1.249989054599724,-0.7307460506941417,5.001070236988043,6.178957075901407,-5.881089967814284,1.307305658544249,-3.0436351688769774,-3.831393857546732,0.7718147169800191,0.19392894333849117,-6.363880012104563,-0.10002681998827935,3.5560115042397125,4.062901871448846,1.1649426408903703
JNPR,-2.446463421968542,5.9225554966221114,4.717945154786127,-0.3176210090597115,-2.016531413608215,-0.6288646829222885,-2.4115703165611486,-0.601251885530968,0.7994285692280143,-1.0301233790414102,2.118511333439185,1.9161501946338553,-1.3093103998767375,0.2556398601008115,1.0294466331731793,-0.5594828660150998,0.5336525210869824,-5.694720671521416,-1.5087696953974925,2.7666705825254505
JPM,-14.779856698247402,-12.70875225112207,2.7202423225211767,-12.040493777643961,6.2268256127143635,-0.654574870981579,-7.243328761314236,1.4371119725567523,-3.971058173175341,4.8898983685605515,-1.3489580398991796,-3.002560146197456,-1.3606242017973569,0.015514868730542766,1.1555831005105766,1.8032384077111858,0.048099843278896465,1.9804764778079873,3.268894137811272,-1.847059208459406
K,24.221391945932908,-4.510792680386911,16.056571360533123,0.45433216362957307,-8.734765519147697,-7.187837401715021,-6.776501841495586,-6.44216632169981,-2.550849283656236,-7.822218812427128,1.8612368353679196,-8.560254535879585,4.43091276656865,1.6616704193086846,-0.8999201858830579,8.805563540078031,5.766041220155819,-4.327054932198186,2.390443464391772,3.1121588677558933
KDP,11.107962963860873,0.3923934188908813,2.6950256532460966,7.068279820371273,-0.452196155739696,-7.234766762900921,5.154872425413272,-9.61730820633455,-1.9208724079227646,4.6106716897752325,-0.6515038407768307,-9.523071600354326,-2.2784342761950263,-6.948846863221502,10.02263988486491,-0.234450394732278,5.367205983743187,-1.6460241288217328,-3.4761259571957677,-3.1294136495417186
KEY,-17.77954395125719,-14.600614723344796,0.24238832046877173,-6.700133124390936,2.3925968917060065,-4.697038238263587,-7.072952282708179,5.302515371668982,-7.893929171969486,10.550302106812431,-1.602981517362357,-3.5408540013147802,-0.8516209269208653,-3.934507831299289,3.1302823478079755,2.79447269731472,4.275896686237553,0.2983380600183419,2.0036153961189482,1.118913237863229
KEYS,-5.116582257753345,15.597099220167872,1.2786032757795065,-1.9875836076830655,-3.3981115332739193,5.848693326080012,-4.31034525327247,1.4149205896238284,2.0628291833637062,1.2979747756959172,3.3953016637848186,-0.5208534078622974,1.4531452268180607,-3.350327564785154,-1.9983372768834504,2.72034384285043,0.9068185838924984,-2.0440848140473937,-0.12433956877701954,3.667806751363125
KIM,-1.022038505273132,-17.758679481365604,-15.67891724183868,9.204610739826817,0.18314733236225944,-6.789874241929653,-3.340877342507308,2.916322633014161,-3.5891880882883367,-5.201641149069503,8.742285089444367,0.22614237523270056,-0.9644520071026438,-3.8325393031305883,-3.0775486563830032,-1.8304447344247696,-2.845585881623155,-2.0651322265011136,0.7205284954155261,0.9165658312936219
KKR,-12.122757296659685,6.434717389614469,-4.9577697459464805,-1.3790537979827429,-0.48153233980622956,3.2050217836063233,-0.9187407659800412,3.4000797574038306,-4.575761417492504,2.2965377325308918,-3.858680258040489,0.3088359509409136,-0.07452090363446556,6.884541320813081,0.438839186734865,2.401377160407346,-2.576102447823553,-1.1385554175167456,2.6154906577077055,-3.3806989573546637
KLAC,-7.990011384973608,17.913432130761723,-3.470911567918039,-0.5507951116323704,-5.5466416407300505,9.250051417244515,-9.031199514758642,-5.773501466267519,9.913252131799002,5.886494347227735,8.667122859521548,-2.014426545711208,-0.43138571026806594,1.7677275799861778,-6.554571662705092,0.7308607901130245,3.5724061577307658,-1.0990678538248237,3.6639672322695076,1.1625184777901125
KMB,25.006324961464003,-1.976319437947443,9.369915895138043,-3.602585603561766,-5.443338631819103,-4.764453323567151,-2.0034191022896053,-7.8510010749811405,-1.1976439775827958,-6.3560793201979395,2.357316515736789,-9.879128353947115,3.4120119400310753,3.1877421884966983,1.179749721565525,-0.18402947500512595,-0.8780118066186741,-0.8995823306507796,5.5360090372781166,-1.1253411301798937
KMI,-7.899772553263008,-13.32819311204563,7.1184570326547805,13.8454171180699,2.3099783702170673,10.853973977590394,7.8327105657231,1.178812424094384,-4.566880083112029,0.4217769475402909,-1.2324132447939653,-5.079751551561745,0.45241004418978786,3.6641769160523165,1.9415517553073693,1.2214944618503403,-4.822776680452721,1.5938982553154535,2.5234950620757157,1.378483782714664
KR,12.561021088807744,2.0731742918492553,20.484206903901494,5.873238505479908,-10.172512312632488,-12.626857295207794,-2.513613128176663,-4.189942118431204,-6.845610433664881,3.4862146609688343,3.5381927970371723,5.3445821752221025,-1.963414624175436,-5.97486162603476,2.569829563143474,1.208380777640477,-2.130417060887471,-3.490719715498578,2.1441224105440093,2.0020154509932944
L,-6.8707042362769135,-17.064560653835205,1.4745814565371629,-9.060402952242864,4.820905402971017,2.717771606705487,-3.2601786454004444,-3.4732787387486224,-0.5443010515361851,1.6075042890316273,0.5065449106657587,-0.8187332304274609,0.2763027715953314,-1.4664277752911374,-0.4827183099898198,-1.901022969436789,-1.8849440803398456,-6.392615893595349,-1.1879666198317849,-0.02483572128948631
LDOS,3.869072181334951,-1.8961952770416355,3.9159460741835215,-2.696707885664845,6.126806811133063,0.7153378994452628,2.6927138591444755,-2.4765848819982508,0.1154490025855618,-1.2391268892148062,3.3790470346190924,9.35298807632597,5.145758183539869,1.637412964287145,4.104185213923332,-2.841494858964104,8.800444717519541,-0.4249267632416007,0.049058518205313636,5.235951706429586
